{"learner":{"attributes":{"scikit_learn":"{\"_estimator_type\": \"classifier\"}"},"feature_names":["cat__Gender_0.0","cat__Gender_1.0","cat__ASAgr_0.0","cat__ASAgr_1.0","cat__ASAgr_2.0","cat__Emer_surg_0.0","cat__Emer_surg_1.0","cat__HT_0.0","cat__HT_1.0","cat__DM_0.0","cat__DM_1.0","cat__DLP_0.0","cat__DLP_1.0","cat__COPD_0.0","cat__COPD_1.0","cat__CAD_0.0","cat__CAD_1.0","cat__CVD_0.0","cat__CVD_1.0","cat__NSAIDs_0.0","cat__NSAIDs_1.0","cat__ACEI_0.0","cat__ACEI_1.0","cat__ARB_0.0","cat__ARB_1.0","cat__Statin_0.0","cat__Statin_1.0","cat__Diuretics_0.0","cat__Diuretics_1.0","cat__Dx_0.0","cat__Dx_1.0","cat__Dx_2.0","cat__Type_Op_0.0","cat__Type_Op_1.0","cat__Type_Op_2.0","cat__Type_Op_3.0","cat__Type_Op_4.0","cat__Type_Op_5.0","cat__Op_app_0.0","cat__Op_app_1.0","cat__Side_op_0.0","cat__Side_op_1.0","cat__Side_op_2.0","cat__One_lung_0.0","cat__One_lung_1.0","cat__Typ_Anal_0.0","cat__Typ_Anal_1.0","cat__Hypotension_0.0","cat__Hypotension_1.0","cat__Hypoxemia_0.0","cat__Hypoxemia_1.0","cat__Hypercarbia_0.0","cat__Hypercarbia_1.0","cat__offETT_0.0","cat__offETT_1.0","cat__offETT_2.0","cat__offETT_3.0","num__Age","num__BW","num__Height","num__BMI","num__Dur_anes","num__Dur_sx","num__Time_OL","num__Fluid_ml","num__Crystalloid_ml","num__Total_HES_ml","num__Total_blood_ml","num__FFP_ml","num__Bl_loss","num__Urine","num__fluid_balance","num__Ephedrine","num__Levophed","num__Hypotension(Mins)","num__LowestSBP","num__LowestDBP","num__Lowest MAP","num__Pre Hb","num__Alb","num__PreCr","num__PreGFR","num__NLR1"],"feature_types":["float","float","float","float","float","float","float","float","float","float","float","float","float","float","float","float","float","float","float","float","float","float","float","float","float","float","float","float","float","float","float","float","float","float","float","float","float","float","float","float","float","float","float","float","float","float","float","float","float","float","float","float","float","float","float","float","float","float","float","float","float","float","float","float","float","float","float","float","float","float","float","float","float","float","float","float","float","float","float","float","float","float","float"],"gradient_booster":{"model":{"cats":{"enc":[],"feature_segments":[],"sorted_idx":[]},"gbtree_model_param":{"num_parallel_tree":"1","num_trees":"2000"},"iteration_indptr":[0,4,8,12,16,20,24,28,32,36,40,44,48,52,56,60,64,68,72,76,80,84,88,92,96,100,104,108,112,116,120,124,128,132,136,140,144,148,152,156,160,164,168,172,176,180,184,188,192,196,200,204,208,212,216,220,224,228,232,236,240,244,248,252,256,260,264,268,272,276,280,284,288,292,296,300,304,308,312,316,320,324,328,332,336,340,344,348,352,356,360,364,368,372,376,380,384,388,392,396,400,404,408,412,416,420,424,428,432,436,440,444,448,452,456,460,464,468,472,476,480,484,488,492,496,500,504,508,512,516,520,524,528,532,536,540,544,548,552,556,560,564,568,572,576,580,584,588,592,596,600,604,608,612,616,620,624,628,632,636,640,644,648,652,656,660,664,668,672,676,680,684,688,692,696,700,704,708,712,716,720,724,728,732,736,740,744,748,752,756,760,764,768,772,776,780,784,788,792,796,800,804,808,812,816,820,824,828,832,836,840,844,848,852,856,860,864,868,872,876,880,884,888,892,896,900,904,908,912,916,920,924,928,932,936,940,944,948,952,956,960,964,968,972,976,980,984,988,992,996,1000,1004,1008,1012,1016,1020,1024,1028,1032,1036,1040,1044,1048,1052,1056,1060,1064,1068,1072,1076,1080,1084,1088,1092,1096,1100,1104,1108,1112,1116,1120,1124,1128,1132,1136,1140,1144,1148,1152,1156,1160,1164,1168,1172,1176,1180,1184,1188,1192,1196,1200,1204,1208,1212,1216,1220,1224,1228,1232,1236,1240,1244,1248,1252,1256,1260,1264,1268,1272,1276,1280,1284,1288,1292,1296,1300,1304,1308,1312,1316,1320,1324,1328,1332,1336,1340,1344,1348,1352,1356,1360,1364,1368,1372,1376,1380,1384,1388,1392,1396,1400,1404,1408,1412,1416,1420,1424,1428,1432,1436,1440,1444,1448,1452,1456,1460,1464,1468,1472,1476,1480,1484,1488,1492,1496,1500,1504,1508,1512,1516,1520,1524,1528,1532,1536,1540,1544,1548,1552,1556,1560,1564,1568,1572,1576,1580,1584,1588,1592,1596,1600,1604,1608,1612,1616,1620,1624,1628,1632,1636,1640,1644,1648,1652,1656,1660,1664,1668,1672,1676,1680,1684,1688,1692,1696,1700,1704,1708,1712,1716,1720,1724,1728,1732,1736,1740,1744,1748,1752,1756,1760,1764,1768,1772,1776,1780,1784,1788,1792,1796,1800,1804,1808,1812,1816,1820,1824,1828,1832,1836,1840,1844,1848,1852,1856,1860,1864,1868,1872,1876,1880,1884,1888,1892,1896,1900,1904,1908,1912,1916,1920,1924,1928,1932,1936,1940,1944,1948,1952,1956,1960,1964,1968,1972,1976,1980,1984,1988,1992,1996,2000],"tree_info":[0,1,2,3,0,1,2,3,0,1,2,3,0,1,2,3,0,1,2,3,0,1,2,3,0,1,2,3,0,1,2,3,0,1,2,3,0,1,2,3,0,1,2,3,0,1,2,3,0,1,2,3,0,1,2,3,0,1,2,3,0,1,2,3,0,1,2,3,0,1,2,3,0,1,2,3,0,1,2,3,0,1,2,3,0,1,2,3,0,1,2,3,0,1,2,3,0,1,2,3,0,1,2,3,0,1,2,3,0,1,2,3,0,1,2,3,0,1,2,3,0,1,2,3,0,1,2,3,0,1,2,3,0,1,2,3,0,1,2,3,0,1,2,3,0,1,2,3,0,1,2,3,0,1,2,3,0,1,2,3,0,1,2,3,0,1,2,3,0,1,2,3,0,1,2,3,0,1,2,3,0,1,2,3,0,1,2,3,0,1,2,3,0,1,2,3,0,1,2,3,0,1,2,3,0,1,2,3,0,1,2,3,0,1,2,3,0,1,2,3,0,1,2,3,0,1,2,3,0,1,2,3,0,1,2,3,0,1,2,3,0,1,2,3,0,1,2,3,0,1,2,3,0,1,2,3,0,1,2,3,0,1,2,3,0,1,2,3,0,1,2,3,0,1,2,3,0,1,2,3,0,1,2,3,0,1,2,3,0,1,2,3,0,1,2,3,0,1,2,3,0,1,2,3,0,1,2,3,0,1,2,3,0,1,2,3,0,1,2,3,0,1,2,3,0,1,2,3,0,1,2,3,0,1,2,3,0,1,2,3,0,1,2,3,0,1,2,3,0,1,2,3,0,1,2,3,0,1,2,3,0,1,2,3,0,1,2,3,0,1,2,3,0,1,2,3,0,1,2,3,0,1,2,3,0,1,2,3,0,1,2,3,0,1,2,3,0,1,2,3,0,1,2,3,0,1,2,3,0,1,2,3,0,1,2,3,0,1,2,3,0,1,2,3,0,1,2,3,0,1,2,3,0,1,2,3,0,1,2,3,0,1,2,3,0,1,2,3,0,1,2,3,0,1,2,3,0,1,2,3,0,1,2,3,0,1,2,3,0,1,2,3,0,1,2,3,0,1,2,3,0,1,2,3,0,1,2,3,0,1,2,3,0,1,2,3,0,1,2,3,0,1,2,3,0,1,2,3,0,1,2,3,0,1,2,3,0,1,2,3,0,1,2,3,0,1,2,3,0,1,2,3,0,1,2,3,0,1,2,3,0,1,2,3,0,1,2,3,0,1,2,3,0,1,2,3,0,1,2,3,0,1,2,3,0,1,2,3,0,1,2,3,0,1,2,3,0,1,2,3,0,1,2,3,0,1,2,3,0,1,2,3,0,1,2,3,0,1,2,3,0,1,2,3,0,1,2,3,0,1,2,3,0,1,2,3,0,1,2,3,0,1,2,3,0,1,2,3,0,1,2,3,0,1,2,3,0,1,2,3,0,1,2,3,0,1,2,3,0,1,2,3,0,1,2,3,0,1,2,3,0,1,2,3,0,1,2,3,0,1,2,3,0,1,2,3,0,1,2,3,0,1,2,3,0,1,2,3,0,1,2,3,0,1,2,3,0,1,2,3,0,1,2,3,0,1,2,3,0,1,2,3,0,1,2,3,0,1,2,3,0,1,2,3,0,1,2,3,0,1,2,3,0,1,2,3,0,1,2,3,0,1,2,3,0,1,2,3,0,1,2,3,0,1,2,3,0,1,2,3,0,1,2,3,0,1,2,3,0,1,2,3,0,1,2,3,0,1,2,3,0,1,2,3,0,1,2,3,0,1,2,3,0,1,2,3,0,1,2,3,0,1,2,3,0,1,2,3,0,1,2,3,0,1,2,3,0,1,2,3,0,1,2,3,0,1,2,3,0,1,2,3,0,1,2,3,0,1,2,3,0,1,2,3,0,1,2,3,0,1,2,3,0,1,2,3,0,1,2,3,0,1,2,3,0,1,2,3,0,1,2,3,0,1,2,3,0,1,2,3,0,1,2,3,0,1,2,3,0,1,2,3,0,1,2,3,0,1,2,3,0,1,2,3,0,1,2,3,0,1,2,3,0,1,2,3,0,1,2,3,0,1,2,3,0,1,2,3,0,1,2,3,0,1,2,3,0,1,2,3,0,1,2,3,0,1,2,3,0,1,2,3,0,1,2,3,0,1,2,3,0,1,2,3,0,1,2,3,0,1,2,3,0,1,2,3,0,1,2,3,0,1,2,3,0,1,2,3,0,1,2,3,0,1,2,3,0,1,2,3,0,1,2,3,0,1,2,3,0,1,2,3,0,1,2,3,0,1,2,3,0,1,2,3,0,1,2,3,0,1,2,3,0,1,2,3,0,1,2,3,0,1,2,3,0,1,2,3,0,1,2,3,0,1,2,3,0,1,2,3,0,1,2,3,0,1,2,3,0,1,2,3,0,1,2,3,0,1,2,3,0,1,2,3,0,1,2,3,0,1,2,3,0,1,2,3,0,1,2,3,0,1,2,3,0,1,2,3,0,1,2,3,0,1,2,3,0,1,2,3,0,1,2,3,0,1,2,3,0,1,2,3,0,1,2,3,0,1,2,3,0,1,2,3,0,1,2,3,0,1,2,3,0,1,2,3,0,1,2,3,0,1,2,3,0,1,2,3,0,1,2,3,0,1,2,3,0,1,2,3,0,1,2,3,0,1,2,3,0,1,2,3,0,1,2,3,0,1,2,3,0,1,2,3,0,1,2,3,0,1,2,3,0,1,2,3,0,1,2,3,0,1,2,3,0,1,2,3,0,1,2,3,0,1,2,3,0,1,2,3,0,1,2,3,0,1,2,3,0,1,2,3,0,1,2,3,0,1,2,3,0,1,2,3,0,1,2,3,0,1,2,3,0,1,2,3,0,1,2,3,0,1,2,3,0,1,2,3,0,1,2,3,0,1,2,3,0,1,2,3,0,1,2,3,0,1,2,3,0,1,2,3,0,1,2,3,0,1,2,3,0,1,2,3,0,1,2,3,0,1,2,3,0,1,2,3,0,1,2,3,0,1,2,3,0,1,2,3,0,1,2,3,0,1,2,3,0,1,2,3,0,1,2,3,0,1,2,3,0,1,2,3,0,1,2,3,0,1,2,3,0,1,2,3,0,1,2,3,0,1,2,3,0,1,2,3,0,1,2,3,0,1,2,3,0,1,2,3,0,1,2,3,0,1,2,3,0,1,2,3,0,1,2,3,0,1,2,3,0,1,2,3,0,1,2,3,0,1,2,3,0,1,2,3,0,1,2,3,0,1,2,3,0,1,2,3,0,1,2,3,0,1,2,3,0,1,2,3,0,1,2,3,0,1,2,3,0,1,2,3,0,1,2,3,0,1,2,3,0,1,2,3,0,1,2,3,0,1,2,3,0,1,2,3,0,1,2,3,0,1,2,3,0,1,2,3,0,1,2,3,0,1,2,3,0,1,2,3,0,1,2,3,0,1,2,3,0,1,2,3,0,1,2,3,0,1,2,3,0,1,2,3,0,1,2,3,0,1,2,3,0,1,2,3,0,1,2,3,0,1,2,3,0,1,2,3,0,1,2,3,0,1,2,3,0,1,2,3,0,1,2,3,0,1,2,3,0,1,2,3,0,1,2,3,0,1,2,3,0,1,2,3,0,1,2,3,0,1,2,3,0,1,2,3,0,1,2,3,0,1,2,3,0,1,2,3,0,1,2,3,0,1,2,3,0,1,2,3,0,1,2,3,0,1,2,3,0,1,2,3,0,1,2,3,0,1,2,3,0,1,2,3,0,1,2,3,0,1,2,3,0,1,2,3,0,1,2,3,0,1,2,3,0,1,2,3,0,1,2,3,0,1,2,3,0,1,2,3,0,1,2,3,0,1,2,3,0,1,2,3,0,1,2,3,0,1,2,3,0,1,2,3,0,1,2,3,0,1,2,3,0,1,2,3,0,1,2,3,0,1,2,3,0,1,2,3,0,1,2,3,0,1,2,3,0,1,2,3,0,1,2,3,0,1,2,3,0,1,2,3,0,1,2,3,0,1,2,3,0,1,2,3,0,1,2,3,0,1,2,3,0,1,2,3,0,1,2,3,0,1,2,3,0,1,2,3,0,1,2,3,0,1,2,3,0,1,2,3,0,1,2,3,0,1,2,3,0,1,2,3,0,1,2,3,0,1,2,3,0,1,2,3,0,1,2,3,0,1,2,3,0,1,2,3,0,1,2,3,0,1,2,3,0,1,2,3,0,1,2,3,0,1,2,3,0,1,2,3,0,1,2,3,0,1,2,3,0,1,2,3,0,1,2,3,0,1,2,3,0,1,2,3,0,1,2,3,0,1,2,3,0,1,2,3,0,1,2,3,0,1,2,3,0,1,2,3,0,1,2,3,0,1,2,3,0,1,2,3,0,1,2,3,0,1,2,3,0,1,2,3,0,1,2,3,0,1,2,3,0,1,2,3,0,1,2,3,0,1,2,3,0,1,2,3,0,1,2,3,0,1,2,3,0,1,2,3,0,1,2,3],"trees":[{"base_weights":[7.4640894E-1,1.8640997E-1,9.43151E-1,-2.0433073E-1,4.545996E-1,9.9351203E-1,-2.5439465E-1,7.637503E-1,-4.1210318E-1,6.5078735E-2,8.8975686E-1,1.0230808E0,1.8217805E-1,6.1706454E-1,-6.9135094E-1,-2.1789603E-2,9.3547904E-1,5.400421E-1,-5.462754E-1,8.405998E-1,-2.7509928E-1,9.838196E-1,3.930086E-1,1.0383766E0,1.5713432E-1,-5.01953E-1,7.2186196E-1,-1.3008187E-2,5.092573E-2,-3.7382867E-2,-3.1024811E-3,5.6120206E-2,1.3976656E-2,4.003379E-2,-2.1789603E-2,-3.0821545E-2,1.3587435E-2,-4.0480644E-3,5.0320864E-2,3.5167493E-2,-2.3579493E-2,5.2785076E-2,3.0512572E-3,-7.386888E-3,4.259536E-2,4.0039737E-2,5.3297635E-2,-1.1967464E-2,3.5827454E-2,-3.4615275E-2,1.5584642E-2,-8.802325E-3,4.5920115E-2],"categories":[],"categories_nodes":[],"categories_segments":[],"categories_sizes":[],"default_left":[0,0,0,0,0,0,0,0,0,0,0,0,0,0,0,0,0,0,0,0,0,0,0,0,0,0,0,0,0,0,0,0,0,0,0,0,0,0,0,0,0,0,0,0,0,0,0,0,0,0,0,0,0],"id":0,"left_children":[1,3,5,7,9,11,13,15,17,19,21,23,25,27,29,-1,31,33,35,37,39,41,43,45,47,49,51,-1,-1,-1,-1,-1,-1,-1,-1,-1,-1,-1,-1,-1,-1,-1,-1,-1,-1,-1,-1,-1,-1,-1,-1,-1,-1],"loss_changes":[6.5129E1,1.6372337E1,2.669168E1,1.317129E1,1.5609415E1,9.911041E0,7.466585E0,2.8064513E0,7.100772E0,1.3382938E1,1.6496048E0,5.21286E0,6.275952E0,2.6253767E0,4.0663862E-1,0E0,9.74206E-1,2.150316E0,2.8757334E0,2.4418736E0,7.1386003E0,2.3219185E0,2.260775E0,1.7582703E0,1.9954098E0,1.4010768E0,1.8141518E0,0E0,0E0,0E0,0E0,0E0,0E0,0E0,0E0,0E0,0E0,0E0,0E0,0E0,0E0,0E0,0E0,0E0,0E0,0E0,0E0,0E0,0E0,0E0,0E0,0E0,0E0],"parents":[2147483647,0,0,1,1,2,2,3,3,4,4,5,5,6,6,7,7,8,8,9,9,10,10,11,11,12,12,13,13,14,14,16,16,17,17,18,18,19,19,20,20,21,21,22,22,23,23,24,24,25,25,26,26],"right_children":[2,4,6,8,10,12,14,16,18,20,22,24,26,28,30,-1,32,34,36,38,40,42,44,46,48,50,52,-1,-1,-1,-1,-1,-1,-1,-1,-1,-1,-1,-1,-1,-1,-1,-1,-1,-1,-1,-1,-1,-1,-1,-1,-1,-1],"split_conditions":[-1.9111856E0,-2.5228173E-1,1E0,-7.0208836E-1,-4.1093203E-1,1.9569892E0,-6.910437E-3,-1.4181577E0,-5.4621447E-2,1.0194037E0,3.0635118E0,4.0978575E0,1E0,-1.7549247E-1,1E0,-2.1789603E-2,-4.2714387E-2,4.9051392E-1,8.833918E-1,-1.06554195E-1,-5.4233235E-1,1.5990874E0,4.0678673E0,-1.1913323E0,-3.3715892E-1,1.598791E-1,-1.8039988E0,-1.3008187E-2,5.092573E-2,-3.7382867E-2,-3.1024811E-3,5.6120206E-2,1.3976656E-2,4.003379E-2,-2.1789603E-2,-3.0821545E-2,1.3587435E-2,-4.0480644E-3,5.0320864E-2,3.5167493E-2,-2.3579493E-2,5.2785076E-2,3.0512572E-3,-7.386888E-3,4.259536E-2,4.0039737E-2,5.3297635E-2,-1.1967464E-2,3.5827454E-2,-3.4615275E-2,1.5584642E-2,-8.802325E-3,4.5920115E-2],"split_indices":[79,81,56,62,65,58,73,65,82,81,67,80,23,59,31,0,69,72,58,82,60,61,67,70,70,59,81,0,0,0,0,0,0,0,0,0,0,0,0,0,0,0,0,0,0,0,0,0,0,0,0,0,0],"split_type":[0,0,0,0,0,0,0,0,0,0,0,0,0,0,0,0,0,0,0,0,0,0,0,0,0,0,0,0,0,0,0,0,0,0,0,0,0,0,0,0,0,0,0,0,0,0,0,0,0,0,0,0,0],"sum_hessian":[5.9173535E2,1.5434921E2,4.3738614E2,6.2918217E1,9.1431E1,4.1989832E2,1.7487843E1,1.06447735E1,5.227344E1,4.8851906E1,4.2579094E1,4.0488156E2,1.5016734E1,5.7025576E0,1.1785285E1,1.1405115E0,9.504262E0,6.082728E0,4.6190712E1,1.4446479E1,3.440543E1,3.4975685E1,7.60341E0,3.9765833E2,7.2232394E0,6.6529837E0,8.36375E0,1.9008524E0,3.801705E0,1.06447735E1,1.1405115E0,6.843069E0,2.6611934E0,4.9422164E0,1.1405115E0,4.276918E1,3.4215345E0,2.281023E0,1.2165456E1,5.3223867E0,2.9083042E1,3.231449E1,2.6611934E0,3.801705E0,3.801705E0,4.4479946E1,3.5317838E2,4.562046E0,2.6611934E0,5.512472E0,1.1405115E0,1.520682E0,6.843069E0],"tree_param":{"num_deleted":"0","num_feature":"83","num_nodes":"53","size_leaf_vector":"1"}},{"base_weights":[-3.602681E-1,-3.74806E-1,5.896038E-1,4.717772E-2,-3.8655683E-1,-8.45585E-2,6.2190767E-2,7.401956E-1,-4.3608204E-1,-2.9048142E-1,-4.3947768E-1,2.3368277E-2,-2.1143813E-2,-1.594819E-2,1.0849429E0,3.7100445E-3,-2.6485194E-2,-3.086741E-1,6.1962456E-1,-4.4501838E-1,1.7195111E-2,-1.594819E-2,8.310627E-2,-1.6162993E-2,3.4635983E-2,4.302651E-2,3.7100445E-3,-1.4148192E-3,-2.2833273E-2],"categories":[],"categories_nodes":[],"categories_segments":[],"categories_sizes":[],"default_left":[0,0,0,0,0,0,0,0,0,0,0,0,0,0,0,0,0,0,0,0,0,0,0,0,0,0,0,0,0],"id":1,"left_children":[1,3,5,7,9,11,-1,13,15,17,19,-1,-1,-1,21,-1,-1,23,25,27,-1,-1,-1,-1,-1,-1,-1,-1,-1],"loss_changes":[5.7576065E0,1.9794235E0,2.9422164E0,4.2098594E0,1.8293228E0,9.640185E-1,0E0,2.2225547E0,3.9604533E-1,2.5036392E0,1.2218437E0,0E0,0E0,0E0,3.8559256E0,0E0,0E0,2.2335768E0,3.394723E-1,1.1759567E0,0E0,0E0,0E0,0E0,0E0,0E0,0E0,0E0,0E0],"parents":[2147483647,0,0,1,1,2,2,3,3,4,4,5,5,7,7,8,8,9,9,10,10,14,14,17,17,18,18,19,19],"right_children":[2,4,6,8,10,12,-1,14,16,18,20,-1,-1,-1,22,-1,-1,24,26,28,-1,-1,-1,-1,-1,-1,-1,-1,-1],"split_conditions":[5.5356293E0,-1.4176389E0,2.805439E-1,1E0,-4.0333828E-1,-1.0125856E0,6.2190767E-2,-6.4441985E-1,1E0,-4.198993E-1,3.4435086E0,2.3368277E-2,-2.1143813E-2,-1.594819E-2,-3.618644E-1,3.7100445E-3,-2.6485194E-2,4.4977656E-1,1E0,-9.5916384E-1,1.7195111E-2,-1.594819E-2,8.310627E-2,-1.6162993E-2,3.4635983E-2,4.302651E-2,3.7100445E-3,-1.4148192E-3,-2.2833273E-2],"split_indices":[80,61,62,30,81,77,0,58,53,81,58,0,0,0,82,0,0,59,0,64,0,0,0,0,0,0,0,0,0],"split_type":[0,0,0,0,0,0,0,0,0,0,0,0,0,0,0,0,0,0,0,0,0,0,0,0,0,0,0,0,0],"sum_hessian":[3.9993903E2,3.9450647E2,5.432548E0,1.0606403E1,3.839001E2,3.1043134E0,2.328235E0,4.1390843E0,6.4673195E0,1.3865932E2,2.4524075E2,1.0347711E0,2.0695422E0,1.0347711E0,3.1043134E0,1.0347711E0,5.432548E0,1.3658978E2,2.0695422E0,2.4394728E2,1.2934638E0,1.0347711E0,2.0695422E0,1.3529633E2,1.2934638E0,1.0347711E0,1.0347711E0,6.726012E0,2.3722127E2],"tree_param":{"num_deleted":"0","num_feature":"83","num_nodes":"29","size_leaf_vector":"1"}},{"base_weights":[-4.649253E-1,2.9874903E-1,-4.735975E-1,-2.4388152E-1,5.3584345E-2,2.3668617E-2,-4.7912815E-1,4.365996E-3,-1.9810244E-2,-5.0806123E-1,-3.2692423E-1,2.4309233E-2,-5.126719E-1,-3.7442207E-1,3.472318E-1,-2.7108563E-2,-2.0215964E-2,1.7828826E-3,-2.101119E-2,4.510007E-2,-9.285591E-3],"categories":[],"categories_nodes":[],"categories_segments":[],"categories_sizes":[],"default_left":[0,0,0,0,0,0,0,0,0,0,0,0,0,0,0,0,0,0,0,0,0],"id":2,"left_children":[1,3,5,7,-1,-1,9,-1,-1,11,13,-1,15,17,19,-1,-1,-1,-1,-1,-1],"loss_changes":[2.7423477E0,2.3680134E0,2.2625427E0,2.245728E-1,0E0,0E0,1.5378647E0,0E0,0E0,1.7313919E0,2.1988883E0,0E0,8.1103516E-1,1.1576777E0,1.5782127E0,0E0,0E0,0E0,0E0,0E0,0E0],"parents":[2147483647,0,0,1,1,2,2,3,3,6,6,9,9,10,10,12,12,13,13,14,14],"right_children":[2,4,6,8,-1,-1,10,-1,-1,12,14,-1,16,18,20,-1,-1,-1,-1,-1,-1],"split_conditions":[-2.5090392E0,2.1470073E-1,-5.561844E0,1E0,5.3584345E-2,2.3668617E-2,7.416347E-1,4.365996E-3,-1.9810244E-2,-1.4181577E0,1.5029956E0,2.4309233E-2,-1.9158642E-1,-1.2905266E0,5.5305415E-1,-2.7108563E-2,-2.0215964E-2,1.7828826E-3,-2.101119E-2,4.510007E-2,-9.285591E-3],"split_indices":[76,73,79,3,0,0,60,0,0,65,57,0,73,70,58,0,0,0,0,0,0],"split_type":[0,0,0,0,0,0,0,0,0,0,0,0,0,0,0,0,0,0,0,0,0],"sum_hessian":[3.9171722E2,4.02277E0,3.8769446E2,2.7656543E0,1.2571156E0,1.7599618E0,3.8593448E2,1.0056925E0,1.7599618E0,3.2232443E2,6.361005E1,1.0056925E0,3.2131876E2,5.9838703E1,3.7713468E0,2.4941173E2,7.190701E1,6.034155E0,5.3804546E1,1.5085387E0,2.262808E0],"tree_param":{"num_deleted":"0","num_feature":"83","num_nodes":"21","size_leaf_vector":"1"}},{"base_weights":[-2.1747087E-1,-4.022057E-1,1.3957793E0,2.4354914E-1,-5.9979624E-1,1.8607323E-1,1.8323251E0,6.334603E-1,-3.0687038E-2,-3.166708E-2,1.0000186E0,-2.8462276E-2,9.032131E-2,-2.0738697E-2,1.9829011E0,9.732578E-1,-2.9572433E-2,9.032131E-2,-2.1679997E-2,1.0786014E-1,1.0000186E0,-2.6988128E-2,5.885573E-2,-2.1679997E-2,9.032131E-2],"categories":[],"categories_nodes":[],"categories_segments":[],"categories_sizes":[],"default_left":[0,0,0,0,0,0,0,0,0,0,0,0,0,0,0,0,0,0,0,0,0,0,0,0,0],"id":3,"left_children":[1,3,5,7,9,11,13,15,-1,-1,17,-1,-1,-1,19,21,-1,-1,-1,-1,23,-1,-1,-1,-1],"loss_changes":[1.29336E2,4.9713688E1,2.322229E1,3.1050642E1,1.6612358E1,1.6871525E1,1.1878174E1,2.702387E1,0E0,0E0,8.301001E0,0E0,0E0,0E0,3.1185913E0,1.6095074E1,0E0,0E0,0E0,0E0,8.301001E0,0E0,0E0,0E0,0E0],"parents":[2147483647,0,0,1,1,2,2,3,3,4,4,5,5,6,6,7,7,10,10,14,14,15,15,20,20],"right_children":[2,4,6,8,10,12,14,16,-1,-1,18,-1,-1,-1,20,22,-1,-1,-1,-1,24,-1,-1,-1,-1],"split_conditions":[1E0,-1.9111856E0,-1.9158642E-1,-2.941138E-1,3.0092018E0,1.6632396E0,-8.4123063E-1,1E0,-3.0687038E-2,-3.166708E-2,-8.371938E-1,-2.8462276E-2,9.032131E-2,-2.0738697E-2,6.763907E-1,-7.601785E-2,-2.9572433E-2,9.032131E-2,-2.1679997E-2,1.0786014E-1,4.6781504E-1,-2.6988128E-2,5.885573E-2,-2.1679997E-2,9.032131E-2],"split_indices":[56,79,73,67,60,75,60,8,0,0,69,0,0,0,73,59,0,0,0,0,61,0,0,0,0],"split_type":[0,0,0,0,0,0,0,0,0,0,0,0,0,0,0,0,0,0,0,0,0,0,0,0,0],"sum_hessian":[4.3109552E2,3.8747595E2,4.3619564E1,9.072869E1,2.9674725E2,1.1945049E1,3.1674513E1,6.2543743E1,2.818495E1,2.9124448E2,5.5027757E0,8.589699E0,3.355351E0,1.8789966E0,2.9795517E1,4.9122337E1,1.3421404E1,3.355351E0,2.1474247E0,2.4292742E1,5.5027757E0,5.6369896E0,4.3485348E1,2.1474247E0,3.355351E0],"tree_param":{"num_deleted":"0","num_feature":"83","num_nodes":"25","size_leaf_vector":"1"}},{"base_weights":[6.960835E-1,7.971311E-1,-3.9533105E-1,3.1447938E-1,9.3868816E-1,-4.9937597E-1,4.702389E-2,-2.2331158E-2,5.670511E-1,9.70697E-1,1.7742066E-1,-1.5122561E-1,-3.8789388E-2,9.2791456E-1,-3.2767272E-1,-1.4582571E-1,8.3062047E-1,9.852657E-1,1.467842E-1,-4.906604E-1,5.936488E-1,-5.036657E-1,5.227162E-1,-3.527766E-3,5.1260855E-2,4.920776E-2,-2.420551E-2,2.8105197E-2,-2.1809956E-2,4.764546E-2,2.122387E-2,3.835448E-2,5.0686914E-2,3.0990427E-2,-1.6003957E-2,1.5339635E-2,-3.397893E-2,3.6495473E-2,-9.507002E-3,-3.7135527E-2,8.84473E-3,5.0869714E-2,-1.892942E-2],"categories":[],"categories_nodes":[],"categories_segments":[],"categories_sizes":[],"default_left":[0,0,0,0,0,0,0,0,0,0,0,0,0,0,0,0,0,0,0,0,0,0,0,0,0,0,0,0,0,0,0,0,0,0,0,0,0,0,0,0,0,0,0],"id":4,"left_children":[1,3,5,7,9,11,-1,13,15,17,19,21,-1,23,25,27,29,31,33,35,37,39,41,-1,-1,-1,-1,-1,-1,-1,-1,-1,-1,-1,-1,-1,-1,-1,-1,-1,-1,-1,-1],"loss_changes":[6.657654E1,3.7298676E1,7.638623E0,1.075568E1,1.0182739E1,4.5506554E0,0E0,1.6285582E1,1.3688059E1,4.747711E0,5.3996677E0,5.6574144E0,0E0,1.3990393E0,9.182767E0,4.42656E0,2.221138E0,1.7092285E0,2.0218084E0,1.3533525E0,1.3959522E0,2.6401396E0,4.080806E0,0E0,0E0,0E0,0E0,0E0,0E0,0E0,0E0,0E0,0E0,0E0,0E0,0E0,0E0,0E0,0E0,0E0,0E0,0E0,0E0],"parents":[2147483647,0,0,1,1,2,2,3,3,4,4,5,5,7,7,8,8,9,9,10,10,11,11,13,13,14,14,15,15,16,16,17,17,18,18,19,19,20,20,21,21,22,22],"right_children":[2,4,6,8,10,12,-1,14,16,18,20,22,-1,24,26,28,30,32,34,36,38,40,42,-1,-1,-1,-1,-1,-1,-1,-1,-1,-1,-1,-1,-1,-1,-1,-1,-1,-1,-1,-1],"split_conditions":[1E0,-1.9111856E0,7.017061E-1,-5.016688E-1,1.9569892E0,3.3787475E0,4.702389E-2,1E0,-1.095388E0,4.0978575E0,1E0,-8.029184E-2,-3.8789388E-2,-1.4079229E0,-7.601785E-2,-2.2037248E-1,8.459571E-1,-1.1637783E0,1E0,-7.535373E-1,1.6002812E0,-2.8964899E0,-6.6048247E-1,-3.527766E-3,5.1260855E-2,4.920776E-2,-2.420551E-2,2.8105197E-2,-2.1809956E-2,4.764546E-2,2.122387E-2,3.835448E-2,5.0686914E-2,3.0990427E-2,-1.6003957E-2,1.5339635E-2,-3.397893E-2,3.6495473E-2,-9.507002E-3,-3.7135527E-2,8.84473E-3,5.0869714E-2,-1.892942E-2],"split_indices":[56,79,58,64,58,67,0,41,81,80,23,64,0,62,59,72,72,70,34,72,76,79,80,0,0,0,0,0,0,0,0,0,0,0,0,0,0,0,0,0,0,0,0],"split_type":[0,0,0,0,0,0,0,0,0,0,0,0,0,0,0,0,0,0,0,0,0,0,0,0,0,0,0,0,0,0,0,0,0,0,0,0,0,0,0,0,0,0,0],"sum_hessian":[5.9982056E2,5.492394E2,5.058122E1,1.2528616E2,4.239532E2,4.7507095E1,3.0741222E0,5.4080326E1,7.120583E1,4.065826E2,1.7370598E1,2.170986E1,2.5797235E1,1.265575E1,4.1424576E1,1.9340973E1,5.1864864E1,3.9932578E2,7.256834E0,6.599316E0,1.0771281E1,1.4421005E1,7.2888546E0,1.1482167E0,1.1507534E1,3.8498743E0,3.7574703E1,5.3534584E0,1.39875145E1,3.8827694E1,1.3037169E1,4.9322838E1,3.5000293E2,3.4419055E0,3.8149285E0,1.1444538E0,5.4548626E0,9.234601E0,1.53668E0,1.0604783E1,3.8162217E0,4.622829E0,2.6660256E0],"tree_param":{"num_deleted":"0","num_feature":"83","num_nodes":"43","size_leaf_vector":"1"}},{"base_weights":[-3.4724098E-1,-3.8074505E-1,2.4017991E-4,-2.3468037E-3,-3.914944E-1,-2.8309697E-2,2.384856E-1,-3.1139424E-1,5.734346E-2,2.915657E-1,-3.9668503E-1,-4.3873567E-2,9.944509E-1,-4.5351326E-1,1.712304E-2,-1.7411863E-2,4.30816E-2,-8.6009055E-2,-4.0721267E-1,-2.1766603E-1,6.991039E-1,1.2622622E0,-1.5919494E-2,-2.6906772E-2,3.7520532E-3,-2.2527842E-2,2.1817833E-2,-2.3462405E-2,-1.6896239E-2,1.1747273E-2,-1.9480791E-2,-5.8242446E-3,6.947269E-2,4.013762E-3,7.388909E-2],"categories":[],"categories_nodes":[],"categories_segments":[],"categories_sizes":[],"default_left":[0,0,0,0,0,0,0,0,0,0,0,0,0,0,0,0,0,0,0,0,0,0,0,0,0,0,0,0,0,0,0,0,0,0,0],"id":5,"left_children":[1,3,5,7,9,-1,11,13,-1,15,17,19,21,23,-1,-1,-1,25,27,29,31,33,-1,-1,-1,-1,-1,-1,-1,-1,-1,-1,-1,-1,-1],"loss_changes":[4.7424927E0,1.510292E0,5.1041837E0,4.359353E0,1.3965149E0,0E0,5.7265425E0,1.0536208E0,0E0,1.5039967E0,1.1390228E0,2.7787335E0,2.9622698E0,4.1480625E-1,0E0,0E0,0E0,2.678423E0,1.3326263E0,1.433878E0,2.4666939E0,1.4734554E0,0E0,0E0,0E0,0E0,0E0,0E0,0E0,0E0,0E0,0E0,0E0,0E0,0E0],"parents":[2147483647,0,0,1,1,2,2,3,3,4,4,6,6,7,7,9,9,10,10,11,11,12,12,13,13,17,17,18,18,19,19,20,20,21,21],"right_children":[2,4,6,8,10,-1,12,14,-1,16,18,20,22,24,-1,-1,-1,26,28,30,32,34,-1,-1,-1,-1,-1,-1,-1,-1,-1,-1,-1,-1,-1],"split_conditions":[1.7015711E0,-1.4176389E0,-1.4944261E0,1E0,-2.0070627E0,-2.8309697E-2,5.284662E-1,1E0,5.734346E-2,-7.974132E-1,-9.5916384E-1,1.0485606E0,1.131145E0,1E0,1.712304E-2,-1.7411863E-2,4.30816E-2,4.406129E-1,-2.2476394E-1,-7.263057E-1,1E0,-1.2953686E0,-1.5919494E-2,-2.6906772E-2,3.7520532E-3,-2.2527842E-2,2.1817833E-2,-2.3462405E-2,-1.6896239E-2,1.1747273E-2,-1.9480791E-2,-5.8242446E-3,6.947269E-2,4.013762E-3,7.388909E-2],"split_indices":[80,61,70,31,58,0,63,28,0,80,64,58,58,55,0,0,0,78,64,61,9,60,0,0,0,0,0,0,0,0,0,0,0,0,0],"split_type":[0,0,0,0,0,0,0,0,0,0,0,0,0,0,0,0,0,0,0,0,0,0,0,0,0,0,0,0,0,0,0,0,0,0,0],"sum_hessian":[4.0635153E2,3.7052945E2,3.5822098E1,1.0268722E1,3.602607E2,1.0198473E1,2.5623627E1,8.667022E0,1.6017001E0,2.300918E0,3.579598E2,1.9341413E1,6.2822113E0,7.371242E0,1.2957797E0,1.2674963E0,1.0334218E0,1.2032901E1,3.459269E2,1.6247856E1,3.0935576E0,5.2498093E0,1.0324023E0,6.33834E0,1.0329025E0,7.167987E0,4.8649144E0,1.7946999E2,1.6645692E2,4.3723807E0,1.1875476E1,1.7992115E0,1.294346E0,1.02127E0,4.2285395E0],"tree_param":{"num_deleted":"0","num_feature":"83","num_nodes":"35","size_leaf_vector":"1"}},{"base_weights":[-4.6271494E-1,-4.9475685E-1,-1.8296067E-1,2.305977E-2,-5.009619E-1,-3.293653E-1,5.3761834E-1,-5.443751E-1,-3.87381E-1,1.8424122E-1,-3.959557E-1,1.0303311E0,-2.1334987E-2,-5.502177E-1,6.1616017E-3,-8.593988E-2,-4.9893352E-1,-2.0614926E-2,3.8221385E-2,1.940581E-1,-4.5799574E-1,7.3593006E-2,-2.3991351E-3,-2.8067097E-2,-9.317054E-3,-1.5517257E-2,2.1373352E-2,1.900486E-2,-2.5963247E-2,3.6330253E-2,-1.8371344E-2,3.5376304E-3,-2.52278E-2],"categories":[],"categories_nodes":[],"categories_segments":[],"categories_sizes":[],"default_left":[0,0,0,0,0,0,0,0,0,0,0,0,0,0,0,0,0,0,0,0,0,0,0,0,0,0,0,0,0,0,0,0,0],"id":6,"left_children":[1,3,5,-1,7,9,11,13,15,17,19,21,-1,23,-1,25,27,-1,-1,29,31,-1,-1,-1,-1,-1,-1,-1,-1,-1,-1,-1,-1],"loss_changes":[3.424446E0,2.3145065E0,4.595649E0,0E0,1.5122528E0,1.2847402E0,3.9806457E0,1.0443192E0,3.3231916E0,1.9588052E0,1.2485871E0,2.5584316E0,0E0,9.007416E-1,0E0,3.3869479E0,1.4994373E0,0E0,0E0,1.3783631E0,7.48786E-1,0E0,0E0,0E0,0E0,0E0,0E0,0E0,0E0,0E0,0E0,0E0,0E0],"parents":[2147483647,0,0,1,1,2,2,4,4,5,5,6,6,7,7,8,8,9,9,10,10,11,11,13,13,15,15,16,16,19,19,20,20],"right_children":[2,4,6,-1,8,10,12,14,16,18,20,22,-1,24,-1,26,28,-1,-1,30,32,-1,-1,-1,-1,-1,-1,-1,-1,-1,-1,-1,-1],"split_conditions":[1.131145E0,-1.4181577E0,8.459571E-1,2.305977E-2,1E0,-1.2905266E0,1E0,3.5671623E0,1E0,1E0,-1.8039988E0,4.67073E-1,-2.1334987E-2,1.9657626E0,6.1616017E-3,-3.1815588E-1,-5.325742E-1,-2.0614926E-2,3.8221385E-2,-5.668152E-1,-1.29652E0,7.3593006E-2,-2.3991351E-3,-2.8067097E-2,-9.317054E-3,-1.5517257E-2,2.1373352E-2,1.900486E-2,-2.5963247E-2,3.6330253E-2,-1.8371344E-2,3.5376304E-3,-2.52278E-2],"split_indices":[58,65,72,0,36,70,47,82,1,8,81,71,0,78,0,80,82,0,0,63,75,0,0,0,0,0,0,0,0,0,0,0,0],"split_type":[0,0,0,0,0,0,0,0,0,0,0,0,0,0,0,0,0,0,0,0,0,0,0,0,0,0,0,0,0,0,0,0,0],"sum_hessian":[3.911252E2,3.5024142E2,4.0883785E1,1.7858574E0,3.4845557E2,3.443111E1,6.4526734E0,2.4935393E2,9.910163E1,3.7489522E0,3.068216E1,4.225316E0,2.2273574E0,2.4736494E2,1.9889796E0,2.7246258E1,7.185537E1,1.9911E0,1.7578522E0,2.716807E0,2.7965351E1,2.7388828E0,1.4864335E0,2.395004E2,7.86456E0,1.923454E1,8.011717E0,1.2243724E0,7.0631E1,1.2434062E0,1.4734006E0,2.2212098E0,2.5744143E1],"tree_param":{"num_deleted":"0","num_feature":"83","num_nodes":"33","size_leaf_vector":"1"}},{"base_weights":[-2.3101994E-1,-4.1916165E-1,1.3429763E0,1.4478293E-1,-5.930581E-1,-2.5613058E-2,1.5461717E0,4.923621E-1,-3.0473445E-2,-3.135757E-2,8.8907146E-1,4.4265848E-1,1.8328552E0,-2.933926E-2,7.995771E-1,8.35981E-2,-2.2138992E-2,-2.6498217E-2,8.38114E-2,9.597106E-2,-1.6778441E-2,7.689687E-2,1.6789613E-2],"categories":[],"categories_nodes":[],"categories_segments":[],"categories_sizes":[],"default_left":[0,0,0,0,0,0,0,0,0,0,0,0,0,0,0,0,0,0,0,0,0,0,0],"id":7,"left_children":[1,3,5,7,9,-1,11,13,-1,-1,15,17,19,-1,21,-1,-1,-1,-1,-1,-1,-1,-1],"loss_changes":[1.2620007E2,3.7324417E1,1.7957787E1,2.3972723E1,1.5232933E1,0E0,1.2250908E1,2.1145355E1,0E0,0E0,7.9808E0,1.26859665E1,6.7365265E0,0E0,1.6252525E1,0E0,0E0,0E0,0E0,0E0,0E0,0E0,0E0],"parents":[2147483647,0,0,1,1,2,2,3,3,4,4,6,6,7,7,10,10,11,11,12,12,14,14],"right_children":[2,4,6,8,10,-1,12,14,-1,-1,16,18,20,-1,22,-1,-1,-1,-1,-1,-1,-1,-1],"split_conditions":[1E0,-1.9111856E0,-7.3682106E-1,-2.941138E-1,3.0092018E0,-2.5613058E-2,-1.9158642E-1,1E0,-3.0473445E-2,-3.135757E-2,-8.371938E-1,1.3672637E0,4.823392E-1,-2.933926E-2,-3.401053E-1,8.35981E-2,-2.2138992E-2,-2.6498217E-2,8.38114E-2,9.597106E-2,-1.6778441E-2,7.689687E-2,1.6789613E-2],"split_indices":[56,79,60,67,60,0,73,7,0,0,69,75,60,0,81,0,0,0,0,0,0,0,0],"split_type":[0,0,0,0,0,0,0,0,0,0,0,0,0,0,0,0,0,0,0,0,0,0,0],"sum_hessian":[4.232573E2,3.787219E2,4.45354E1,8.929769E1,2.894242E2,4.2461042E0,4.0289295E1,6.1365883E1,2.7931805E1,2.834802E2,5.9440227E0,8.83301E0,3.1456285E1,1.33968935E1,4.796899E1,3.5826802E0,2.3613424E0,5.2578087E0,3.5752013E0,3.0359146E1,1.0971401E0,1.7612797E1,3.0356194E1],"tree_param":{"num_deleted":"0","num_feature":"83","num_nodes":"23","size_leaf_vector":"1"}},{"base_weights":[6.7254955E-1,1.3181916E-1,8.703285E-1,6.1188424E-1,-1.0231066E-1,8.993018E-1,-1.5085006E-1,1.74948E-1,9.422031E-1,2.548717E-1,-4.317012E-1,9.2811215E-1,-3.0331237E-2,-3.403477E-2,4.5405126E-1,-2.0446639E-1,8.8901967E-1,1.04173E0,3.591725E-1,6.167423E-1,-4.6400115E-1,-4.9936578E-1,2.5236174E-1,9.4287825E-1,1.4533822E-1,-5.1323926E-1,5.625792E-1,-1.3568224E-2,3.9716598E-2,3.1427003E-2,-3.0347263E-2,5.200177E-2,5.64359E-3,6.177043E-3,5.4737538E-2,3.8752582E-2,-2.5644166E-2,-1.3582279E-2,4.3277893E-2,-3.2555502E-2,3.017141E-2,-1.0275945E-2,-3.4026872E-2,4.1594528E-2,-1.130793E-2,3.8702622E-2,4.839281E-2,-1.4121494E-2,3.666454E-2,-3.4109987E-2,1.4121312E-2,3.9772548E-2,-8.0573856E-4],"categories":[],"categories_nodes":[],"categories_segments":[],"categories_sizes":[],"default_left":[0,0,0,0,0,0,0,0,0,0,0,0,0,0,0,0,0,0,0,0,0,0,0,0,0,0,0,0,0,0,0,0,0,0,0,0,0,0,0,0,0,0,0,0,0,0,0,0,0,0,0,0,0],"id":8,"left_children":[1,3,5,7,9,11,13,15,17,19,21,23,25,-1,27,29,31,33,35,37,39,41,43,45,47,49,51,-1,-1,-1,-1,-1,-1,-1,-1,-1,-1,-1,-1,-1,-1,-1,-1,-1,-1,-1,-1,-1,-1,-1,-1,-1,-1],"loss_changes":[6.565442E1,1.8706593E1,1.3452881E1,7.7040997E0,1.33287945E1,1.1754608E1,4.5636406E0,6.873846E0,1.4142742E0,1.4472052E1,2.8487206E0,4.771881E0,4.334261E0,0E0,1.8936447E0,6.0619206E0,9.0907717E-1,1.1207924E0,2.580898E0,8.347926E0,4.1537004E0,2.7276459E0,1.8406713E0,1.0078125E0,2.4820852E0,1.3098273E0,9.318061E-1,0E0,0E0,0E0,0E0,0E0,0E0,0E0,0E0,0E0,0E0,0E0,0E0,0E0,0E0,0E0,0E0,0E0,0E0,0E0,0E0,0E0,0E0,0E0,0E0,0E0,0E0],"parents":[2147483647,0,0,1,1,2,2,3,3,4,4,5,5,6,6,7,7,8,8,9,9,10,10,11,11,12,12,14,14,15,15,16,16,17,17,18,18,19,19,20,20,21,21,22,22,23,23,24,24,25,25,26,26],"right_children":[2,4,6,8,10,12,14,16,18,20,22,24,26,-1,28,30,32,34,36,38,40,42,44,46,48,50,52,-1,-1,-1,-1,-1,-1,-1,-1,-1,-1,-1,-1,-1,-1,-1,-1,-1,-1,-1,-1,-1,-1,-1,-1,-1,-1],"split_conditions":[-1.9111856E0,1E0,1E0,-3.8768268E-1,-1.4699258E-1,2.3699112E0,-2.099228E0,-3.338587E-2,1.5568435E0,1E0,5.7212245E-1,4.0978575E0,-7.929328E-2,-3.403477E-2,-1.7549247E-1,-7.263057E-1,1.5990874E0,-1.2645131E0,9.9983156E-1,-1.1033965E0,2.2842843E-2,-1.3618362E-1,1E0,-1.0535624E0,-3.3715892E-1,1E0,8.459571E-1,-1.3568224E-2,3.9716598E-2,3.1427003E-2,-3.0347263E-2,5.200177E-2,5.64359E-3,6.177043E-3,5.4737538E-2,3.8752582E-2,-2.5644166E-2,-1.3582279E-2,4.3277893E-2,-3.2555502E-2,3.017141E-2,-1.0275945E-2,-3.4026872E-2,4.1594528E-2,-1.130793E-2,3.8702622E-2,4.839281E-2,-1.4121494E-2,3.666454E-2,-3.4109987E-2,1.4121312E-2,3.9772548E-2,-8.0573856E-4],"split_indices":[79,4,56,57,80,58,77,59,72,56,70,80,62,0,59,61,61,65,81,61,71,73,36,70,70,7,72,0,0,0,0,0,0,0,0,0,0,0,0,0,0,0,0,0,0,0,0,0,0,0,0,0,0],"split_type":[0,0,0,0,0,0,0,0,0,0,0,0,0,0,0,0,0,0,0,0,0,0,0,0,0,0,0,0,0,0,0,0,0,0,0,0,0,0,0,0,0,0,0,0,0,0,0,0,0,0,0,0,0],"sum_hessian":[6.139807E2,1.6487541E2,4.4910532E2,5.35211E1,1.1135432E2,4.3683072E2,1.2274616E1,2.3700457E1,2.9820642E1,5.3531937E1,5.7822376E1,4.237014E2,1.3129314E1,6.4764566E0,5.7981596E0,1.5942983E1,7.7574735E0,2.4800325E1,5.0203176E0,3.5702076E1,1.7829859E1,5.286336E1,4.959015E0,4.15656E2,8.045389E0,7.30995E0,5.819365E0,1.9160409E0,3.882119E0,5.0107055E0,1.0932278E1,6.2093244E0,1.5481491E0,1.535706E0,2.326462E1,3.4745553E0,1.5457621E0,7.7913957E0,2.791068E1,1.5502465E1,2.327394E0,2.0976095E1,3.1887266E1,1.9088142E0,3.0502005E0,5.7693783E1,3.5796222E2,4.9578886E0,3.0875006E0,6.147192E0,1.1627581E0,3.882464E0,1.9369011E0],"tree_param":{"num_deleted":"0","num_feature":"83","num_nodes":"53","size_leaf_vector":"1"}},{"base_weights":[-3.476735E-1,-3.7681657E-1,-6.704623E-2,2.770218E-2,-3.8244963E-1,3.7414327E-1,-3.353433E-1,-7.017548E-2,-3.9694595E-1,1.0710273E-1,6.7239866E-2,6.149912E-1,-4.5136255E-1,-2.5430468E-1,7.6497656E-1,-4.041272E-1,2.2849965E-1,-1.5756078E-1,7.469492E-1,3.5585668E-3,4.2884775E-2,-5.5405736E-1,3.333179E-2,1.8860295E-2,-2.1787142E-2,1.12332345E-4,6.1889786E-2,-2.2864833E-2,-1.5626717E-2,2.7601495E-2,-1.7159274E-2,1.8898815E-2,-2.6186386E-2,6.527095E-2,-3.3938847E-3,-2.9511238E-2,3.5478012E-3],"categories":[],"categories_nodes":[],"categories_segments":[],"categories_sizes":[],"default_left":[0,0,0,0,0,0,0,0,0,0,0,0,0,0,0,0,0,0,0,0,0,0,0,0,0,0,0,0,0,0,0,0,0,0,0,0,0],"id":9,"left_children":[1,3,5,-1,7,9,11,13,15,17,-1,19,21,23,25,27,29,31,33,-1,-1,35,-1,-1,-1,-1,-1,-1,-1,-1,-1,-1,-1,-1,-1,-1,-1],"loss_changes":[3.206768E0,2.0880432E0,4.6704116E0,0E0,1.5847702E0,3.742061E0,2.9682674E0,2.8115427E0,1.6204376E0,2.2927842E0,0E0,3.4526682E-1,2.9325833E0,1.8480654E0,1.1958872E0,1.4968758E0,1.0219051E0,2.1416135E0,1.8781047E0,0E0,0E0,5.164342E-1,0E0,0E0,0E0,0E0,0E0,0E0,0E0,0E0,0E0,0E0,0E0,0E0,0E0,0E0,0E0],"parents":[2147483647,0,0,1,1,2,2,4,4,5,5,6,6,7,7,8,8,9,9,11,11,12,12,13,13,14,14,15,15,16,16,17,17,18,18,21,21],"right_children":[2,4,6,-1,8,10,12,14,16,18,-1,20,22,24,26,28,30,32,34,-1,-1,36,-1,-1,-1,-1,-1,-1,-1,-1,-1,-1,-1,-1,-1,-1,-1],"split_conditions":[1.7015711E0,-2.0070627E0,1.9929568E-1,2.770218E-2,-9.5916384E-1,8.93518E-1,2.4546897E0,1.7630551E0,5.311407E0,5.711816E-1,6.7239866E-2,-6.006088E-1,1.0485606E0,-3.1759906E-1,-1.6333079E-2,5.986202E-2,-1.9158642E-1,-7.263057E-1,5.93512E-1,3.5585668E-3,4.2884775E-2,-3.0993348E-1,3.333179E-2,1.8860295E-2,-2.1787142E-2,1.12332345E-4,6.1889786E-2,-2.2864833E-2,-1.5626717E-2,2.7601495E-2,-1.7159274E-2,1.8898815E-2,-2.6186386E-2,6.527095E-2,-3.3938847E-3,-2.9511238E-2,3.5478012E-3],"split_indices":[80,58,82,0,64,67,80,79,70,62,0,61,58,59,59,71,73,61,61,0,0,75,0,0,0,0,0,0,0,0,0,0,0,0,0,0,0],"split_type":[0,0,0,0,0,0,0,0,0,0,0,0,0,0,0,0,0,0,0,0,0,0,0,0,0,0,0,0,0,0,0,0,0,0,0,0,0],"sum_hessian":[3.9419424E2,3.567981E2,3.7396133E1,1.5605648E0,3.5523755E2,1.3992411E1,2.3403725E1,1.601831E1,3.3921924E2,1.1844235E1,2.1481748E0,2.0784006E0,2.1325323E1,1.3694525E1,2.3237858E0,3.357184E2,3.5008001E0,8.911762E0,2.932473E0,1.0404161E0,1.0379846E0,1.9993246E1,1.3320785E0,2.8156042E0,1.0878921E1,1.2737626E0,1.0500231E0,2.0988687E2,1.2583156E2,2.257569E0,1.243231E0,3.6058214E0,5.305941E0,1.3827063E0,1.5497667E0,1.8952208E1,1.0410388E0],"tree_param":{"num_deleted":"0","num_feature":"83","num_nodes":"37","size_leaf_vector":"1"}},{"base_weights":[-4.655824E-1,2.1666744E-1,-4.7429428E-1,-2.7799565E-1,5.0610375E-2,2.335395E-2,-4.799673E-1,-2.1071952E-2,4.448323E-3,-4.8542592E-1,2.0728943E-1,1.05020136E-1,-4.9077561E-1,3.7313815E-2,-1.8192682E-2,-2.100571E-2,4.4082988E-2,-2.5973573E-2,-1.8465828E-2],"categories":[],"categories_nodes":[],"categories_segments":[],"categories_sizes":[],"default_left":[0,0,0,0,0,0,0,0,0,0,0,0,0,0,0,0,0,0,0],"id":10,"left_children":[1,3,5,7,-1,-1,9,-1,-1,11,13,15,17,-1,-1,-1,-1,-1,-1],"loss_changes":[2.378296E0,2.4510875E0,2.2446442E0,2.577411E-1,0E0,0E0,1.5132828E0,0E0,0E0,1.2325592E0,1.400711E0,2.0755594E0,1.1002274E0,0E0,0E0,0E0,0E0,0E0,0E0],"parents":[2147483647,0,0,1,1,2,2,3,3,6,6,9,9,10,10,11,11,12,12],"right_children":[2,4,6,8,-1,-1,10,-1,-1,12,14,16,18,-1,-1,-1,-1,-1,-1],"split_conditions":[-2.5090392E0,2.1470073E-1,-5.561844E0,-2.4969056E-1,5.0610375E-2,2.335395E-2,3.1315615E0,-2.1071952E-2,4.448323E-3,-1.5324819E0,-3.0169696E-1,8.727695E-1,5.5708027E-1,3.7313815E-2,-1.8192682E-2,-2.100571E-2,4.4082988E-2,-2.5973573E-2,-1.8465828E-2],"split_indices":[76,73,79,80,0,0,62,0,0,62,66,57,60,0,0,0,0,0,0],"split_type":[0,0,0,0,0,0,0,0,0,0,0,0,0,0,0,0,0,0,0],"sum_hessian":[3.818477E2,4.513504E0,3.7733417E2,3.1841636E0,1.3293406E0,1.7731049E0,3.7556107E2,2.1825597E0,1.0016037E0,3.7289297E2,2.6680763E0,3.180956E0,3.6971204E2,1.2149208E0,1.4531555E0,2.171638E0,1.0093179E0,2.9640628E2,7.330574E1],"tree_param":{"num_deleted":"0","num_feature":"83","num_nodes":"19","size_leaf_vector":"1"}},{"base_weights":[-2.2378007E-1,-4.0993205E-1,1.1910833E0,1.8550563E-1,-5.870166E-1,-2.5704449E-2,1.3731107E0,-3.893008E-2,9.869811E-1,-3.1064605E-2,8.97187E-1,4.0213963E-1,1.6142548E0,-4.1493002E-1,8.7286866E-1,-2.6478706E-2,1.5840237E0,7.77242E-2,-2.1132858E-2,-2.6483936E-2,7.894891E-2,8.8330604E-2,7.920684E-1,4.2694718E-2,-3.0855715E-2,-2.6922798E-2,7.3952295E-2,9.3844116E-2,-1.9539366E-2,-2.3107832E-2,7.708224E-2],"categories":[],"categories_nodes":[],"categories_segments":[],"categories_sizes":[],"default_left":[0,0,0,0,0,0,0,0,0,0,0,0,0,0,0,0,0,0,0,0,0,0,0,0,0,0,0,0,0,0,0],"id":11,"left_children":[1,3,5,7,9,-1,11,13,15,-1,17,19,21,23,25,-1,27,-1,-1,-1,-1,-1,29,-1,-1,-1,-1,-1,-1,-1,-1],"loss_changes":[1.1073302E2,3.919157E1,1.58914795E1,1.5458477E1,1.5103142E1,0E0,9.765106E0,2.3651957E1,1.7853678E1,0E0,6.611058E0,1.2000218E1,3.0223083E0,1.3039786E1,1.8040604E1,0E0,8.676369E0,0E0,0E0,0E0,0E0,0E0,7.6046953E0,0E0,0E0,0E0,0E0,0E0,0E0,0E0,0E0],"parents":[2147483647,0,0,1,1,2,2,3,3,4,4,6,6,7,7,8,8,10,10,11,11,12,12,13,13,14,14,16,16,22,22],"right_children":[2,4,6,8,10,-1,12,14,16,-1,18,20,22,24,26,-1,28,-1,-1,-1,-1,-1,30,-1,-1,-1,-1,-1,-1,-1,-1],"split_conditions":[1E0,-1.9111856E0,-7.3682106E-1,1E0,3.0092018E0,-2.5704449E-2,-1.9158642E-1,1.030326E0,1E0,-3.1064605E-2,1E0,1.3672637E0,6.763907E-1,1E0,9.451006E-2,-2.6478706E-2,-7.256964E-2,7.77242E-2,-2.1132858E-2,-2.6483936E-2,7.894891E-2,8.8330604E-2,7.192089E-1,4.2694718E-2,-3.0855715E-2,-2.6922798E-2,7.3952295E-2,9.3844116E-2,-1.9539366E-2,-2.3107832E-2,7.708224E-2],"split_indices":[56,79,60,37,60,0,73,57,0,0,9,75,73,23,59,0,57,0,0,0,0,0,61,0,0,0,0,0,0,0,0],"split_type":[0,0,0,0,0,0,0,0,0,0,0,0,0,0,0,0,0,0,0,0,0,0,0,0,0,0,0,0,0,0,0],"sum_hessian":[4.1757736E2,3.6965283E2,4.7924538E1,8.472425E1,2.8492856E2,4.4465413E0,4.3477997E1,6.6932655E1,1.7791601E1,2.7906534E2,5.863218E0,9.180442E0,3.4297554E1,4.777608E1,1.9156569E1,5.057638E0,1.2733964E1,3.7953253E0,2.0678926E0,5.430498E0,3.7499437E0,2.7966484E1,6.331071E0,6.1235957E0,4.165249E1,5.7893367E0,1.3367232E1,1.1132618E1,1.6013455E0,2.5117462E0,3.8193245E0],"tree_param":{"num_deleted":"0","num_feature":"83","num_nodes":"31","size_leaf_vector":"1"}},{"base_weights":[6.135047E-1,7.2911006E-1,-4.2734614E-1,2.8344598E-1,8.5890114E-1,9.462338E-2,-6.247842E-1,9.170801E-1,1.5995882E-1,8.8967115E-1,1.1937292E-1,-5.8667475E-1,5.329819E-1,-6.729815E-1,3.2789193E-2,9.8078597E-1,-4.0868265E-3,-1.549998E-1,4.3531102E-1,9.042634E-1,1.3742882E-1,5.730287E-1,-5.075503E-1,-3.6228818E-3,-3.337939E-2,8.954493E-1,-7.1476E-2,-7.227859E-1,2.1590715E-2,5.2401394E-2,1.2400659E-2,3.2370314E-2,-1.8492239E-2,3.3118613E-2,-1.3259522E-2,3.4845915E-2,4.654171E-2,-1.4002732E-2,3.5374634E-2,3.6275472E-2,-1.1000722E-2,1.407308E-2,-3.382498E-2,1.3601496E-2,4.8516683E-2,-2.1392182E-2,3.129608E-2,-3.6999725E-2,-2.1407537E-3],"categories":[],"categories_nodes":[],"categories_segments":[],"categories_sizes":[],"default_left":[0,0,0,0,0,0,0,0,0,0,0,0,0,0,0,0,0,0,0,0,0,0,0,0,0,0,0,0,0,0,0,0,0,0,0,0,0,0,0,0,0,0,0,0,0,0,0,0,0],"id":12,"left_children":[1,3,5,7,9,11,13,15,17,19,21,23,25,27,-1,29,-1,31,33,35,37,39,41,-1,-1,43,45,47,-1,-1,-1,-1,-1,-1,-1,-1,-1,-1,-1,-1,-1,-1,-1,-1,-1,-1,-1,-1,-1],"loss_changes":[7.489696E1,3.2047913E1,6.509841E0,9.822165E0,9.720734E0,5.702501E0,3.2524853E0,1.3889503E0,9.419507E0,4.425049E0,5.525513E0,2.6541352E-1,2.5847986E0,2.7545147E0,0E0,6.9657516E-1,0E0,9.038007E0,9.368846E0,1.59021E0,2.3557196E0,1.5076954E0,1.2911494E0,0E0,0E0,7.5264454E-2,1.5698626E0,4.6969032E-1,0E0,0E0,0E0,0E0,0E0,0E0,0E0,0E0,0E0,0E0,0E0,0E0,0E0,0E0,0E0,0E0,0E0,0E0,0E0,0E0,0E0],"parents":[2147483647,0,0,1,1,2,2,3,3,4,4,5,5,6,6,7,7,8,8,9,9,10,10,11,11,12,12,13,13,15,15,17,17,18,18,19,19,20,20,21,21,22,22,25,25,26,26,27,27],"right_children":[2,4,6,8,10,12,14,16,18,20,22,24,26,28,-1,30,-1,32,34,36,38,40,42,-1,-1,44,46,48,-1,-1,-1,-1,-1,-1,-1,-1,-1,-1,-1,-1,-1,-1,-1,-1,-1,-1,-1,-1,-1],"split_conditions":[1E0,-1.9111856E0,-1.9158642E-1,-7.601785E-2,1.9569892E0,-6.100229E-1,7.017061E-1,7.840815E-1,-3.769643E-1,3.7897635E0,5.7937473E-1,1E0,2.4170736E-2,1.2058641E0,3.2789193E-2,1.5568435E0,-4.0868265E-3,1E0,1.030326E0,-1.1637783E0,-3.3715892E-1,1.5307878E0,-1.1392658E0,-3.6228818E-3,-3.337939E-2,-9.747575E-1,2.3050775E-1,1.2458718E1,2.1590715E-2,5.2401394E-2,1.2400659E-2,3.2370314E-2,-1.8492239E-2,3.3118613E-2,-1.3259522E-2,3.4845915E-2,4.654171E-2,-1.4002732E-2,3.5374634E-2,3.6275472E-2,-1.1000722E-2,1.407308E-2,-3.382498E-2,1.3601496E-2,4.8516683E-2,-2.1392182E-2,3.129608E-2,-3.6999725E-2,-2.1407537E-3],"split_indices":[56,79,73,59,58,64,58,65,71,80,72,0,80,70,0,72,0,41,57,70,70,81,76,0,0,58,76,73,0,0,0,0,0,0,0,0,0,0,0,0,0,0,0,0,0,0,0,0,0],"split_type":[0,0,0,0,0,0,0,0,0,0,0,0,0,0,0,0,0,0,0,0,0,0,0,0,0,0,0,0,0,0,0,0,0,0,0,0,0,0,0,0,0,0,0,0,0,0,0,0,0],"sum_hessian":[6.188506E2,5.572566E2,6.159396E1,1.26404594E2,4.3085202E2,1.7047089E1,4.454687E1,1.956853E1,1.0683607E2,4.1344647E2,1.7405548E1,6.5416665E0,1.0505423E1,4.338831E1,1.1585608E0,1.8412226E1,1.1563046E0,5.0037872E1,5.679819E1,4.053807E2,8.065772E0,1.0148112E1,7.2574353E0,1.1471055E0,5.394561E0,6.2663517E0,4.2390714E0,4.1847588E1,1.540721E0,1.64706E1,1.9416249E0,1.014285E1,3.9895023E1,4.2935474E1,1.3862718E1,4.914067E1,3.5624002E2,4.949651E0,3.1161213E0,8.582992E0,1.5651205E0,1.1624962E0,6.094939E0,1.1687834E0,5.0975685E0,3.0612817E0,1.1777896E0,4.0728565E1,1.1190253E0],"tree_param":{"num_deleted":"0","num_feature":"83","num_nodes":"49","size_leaf_vector":"1"}},{"base_weights":[-3.287369E-1,-3.62274E-1,-5.426084E-3,2.6562506E-1,-3.707449E-1,-5.064657E-1,2.406295E-1,7.976781E-1,-2.0431316E-2,-3.779217E-1,3.327527E-1,-2.8234048E-2,3.3770145E-3,-1.2765424E-2,1.079626E0,6.320822E-2,8.734246E-4,-4.3087202E-1,-2.804048E-1,3.2536943E-2,-1.5534478E-2,-2.633E-2,2.2253595E-1,3.03342E-3,6.446699E-2,-5.05801E-3,-2.2779223E-2,6.675976E-3,-1.7134069E-2,-1.7433848E-2,2.414873E-2],"categories":[],"categories_nodes":[],"categories_segments":[],"categories_sizes":[],"default_left":[0,0,0,0,0,0,0,0,0,0,0,0,0,0,0,0,0,0,0,0,0,0,0,0,0,0,0,0,0,0,0],"id":13,"left_children":[1,3,5,7,9,11,13,15,-1,17,19,-1,-1,21,23,-1,-1,25,27,-1,-1,-1,29,-1,-1,-1,-1,-1,-1,-1,-1],"loss_changes":[4.1669235E0,1.9512138E0,4.7017636E0,2.1983252E0,1.863121E0,4.5774817E-1,5.4545918E0,1.1629755E0,0E0,1.6405029E0,1.0219955E0,0E0,0E0,2.6131656E0,1.1928258E0,0E0,0E0,1.7399902E0,3.2138596E0,0E0,0E0,0E0,2.3794649E0,0E0,0E0,0E0,0E0,0E0,0E0,0E0,0E0],"parents":[2147483647,0,0,1,1,2,2,3,3,4,4,5,5,6,6,7,7,9,9,10,10,13,13,14,14,17,17,18,18,22,22],"right_children":[2,4,6,8,10,12,14,16,-1,18,20,-1,-1,22,24,-1,-1,26,28,-1,-1,-1,30,-1,-1,-1,-1,-1,-1,-1,-1],"split_conditions":[1.7015711E0,-3.3669775E0,-3.3810997E0,1.6826472E-1,5.311407E0,1E0,1.6914679E-1,-1.1913323E0,-2.0431316E-2,5.986202E-2,7.6259418E0,-2.8234048E-2,3.3770145E-3,-8.508098E-1,-2.886968E-1,6.320822E-2,8.734246E-4,-9.5916384E-1,-5.621315E-2,3.2536943E-2,-1.5534478E-2,-2.633E-2,-4.1716692E-1,3.03342E-3,6.446699E-2,-5.05801E-3,-2.2779223E-2,6.675976E-3,-1.7134069E-2,-1.7433848E-2,2.414873E-2],"split_indices":[80,77,79,78,70,43,69,70,0,71,70,0,0,71,60,0,0,64,64,0,0,0,82,0,0,0,0,0,0,0,0],"split_type":[0,0,0,0,0,0,0,0,0,0,0,0,0,0,0,0,0,0,0,0,0,0,0,0,0,0,0,0,0,0,0],"sum_hessian":[3.834807E2,3.4733145E2,3.6149254E1,4.21934E0,3.4311212E2,1.1557182E1,2.4592072E1,2.2560382E0,1.9633017E0,3.4010532E2,3.0068169E0,1.0507741E1,1.049441E0,1.9643959E1,4.9481115E0,1.0236881E0,1.23235E0,2.1820474E2,1.2190056E2,2.0047426E0,1.0020742E0,5.7812634E0,1.3862696E1,1.064621E0,3.8834906E0,1.5569595E1,2.0263515E2,1.5792303E1,1.0610826E2,4.2351193E0,9.627577E0],"tree_param":{"num_deleted":"0","num_feature":"83","num_nodes":"31","size_leaf_vector":"1"}},{"base_weights":[-4.6059838E-1,-4.885568E-1,-1.513043E-1,3.598682E-1,-4.9475917E-1,-3.246019E-1,6.220936E-1,4.194541E-2,-1.5578813E-2,1.0961596E-2,-4.989093E-1,2.6766506E-1,-4.1868126E-1,1.1728585E0,-2.0258786E-2,-5.027974E-1,1.0815812E-3,-1.9899191E-2,4.7075517E-2,-5.0410485E-1,7.9316705E-2,8.2087845E-2,4.3623886E-4,-2.5329957E-2,-3.4806014E-3,-1.7944535E-2,1.9974504E-2,-6.863437E-3,-2.8757824E-2,2.5315711E-2,-1.9081824E-2],"categories":[],"categories_nodes":[],"categories_segments":[],"categories_sizes":[],"default_left":[0,0,0,0,0,0,0,0,0,0,0,0,0,0,0,0,0,0,0,0,0,0,0,0,0,0,0,0,0,0,0],"id":14,"left_children":[1,3,5,7,9,11,13,-1,-1,-1,15,17,19,21,-1,23,25,-1,-1,27,29,-1,-1,-1,-1,-1,-1,-1,-1,-1,-1],"loss_changes":[3.1609879E0,1.9810562E0,4.552618E0,1.2474084E0,1.1185226E0,1.6263146E0,4.0311866E0,0E0,0E0,0E0,6.5937805E-1,2.3191907E0,1.0541935E0,2.3591852E0,0E0,5.185547E-1,6.615297E-1,0E0,0E0,4.550047E-1,1.0503632E0,0E0,0E0,0E0,0E0,0E0,0E0,0E0,0E0,0E0,0E0],"parents":[2147483647,0,0,1,1,2,2,3,3,4,4,5,5,6,6,10,10,11,11,12,12,13,13,15,15,16,16,19,19,20,20],"right_children":[2,4,6,8,10,12,14,-1,-1,-1,16,18,20,22,-1,24,26,-1,-1,28,30,-1,-1,-1,-1,-1,-1,-1,-1,-1,-1],"split_conditions":[1.3788983E0,-1.4181577E0,1.2902611E0,-2.8815734E-1,-1.7688855E0,1.4614826E0,1E0,4.194541E-2,-1.5578813E-2,1.0961596E-2,1E0,-1.64127E-2,1.475536E0,1E0,-2.0258786E-2,4.3140683E0,-1.1392658E0,-1.9899191E-2,4.7075517E-2,-7.18377E-1,-1.7660658E-1,8.2087845E-2,4.3623886E-4,-2.5329957E-2,-3.4806014E-3,-1.7944535E-2,1.9974504E-2,-6.863437E-3,-2.8757824E-2,2.5315711E-2,-1.9081824E-2],"split_indices":[58,65,72,77,71,58,47,0,0,0,54,81,78,3,0,64,76,0,0,64,64,0,0,0,0,0,0,0,0,0,0],"split_type":[0,0,0,0,0,0,0,0,0,0,0,0,0,0,0,0,0,0,0,0,0,0,0,0,0,0,0,0,0,0,0],"sum_hessian":[3.7309137E2,3.4163034E2,3.146102E1,2.065532E0,3.3956482E2,2.617598E1,5.2850385E0,1.0599241E0,1.0056078E0,1.6628298E0,3.3790198E2,3.335101E0,2.284088E1,3.3481965E0,1.9368417E0,3.3528903E2,2.6129603E0,1.8836987E0,1.4514022E0,1.948609E1,3.3547895E0,2.0943406E0,1.2538561E0,3.3220407E2,3.0849638E0,1.4248033E0,1.1881572E0,3.6375506E0,1.5848539E1,1.6904541E0,1.6643354E0],"tree_param":{"num_deleted":"0","num_feature":"83","num_nodes":"31","size_leaf_vector":"1"}},{"base_weights":[-2.781334E-1,-4.2648414E-1,9.450317E-1,8.934854E-2,-5.806232E-1,-5.121898E-2,1.5752357E0,7.1445614E-1,-4.055872E-1,-3.0785782E-2,7.971562E-1,-2.9439474E-2,7.369637E-2,8.345439E-2,-1.6666444E-2,-2.8403658E-2,1.1537032E0,-3.061745E-2,7.035271E-2,7.268206E-2,-2.178824E-2,7.117798E-2,-2.4822677E-2],"categories":[],"categories_nodes":[],"categories_segments":[],"categories_sizes":[],"default_left":[0,0,0,0,0,0,0,0,0,0,0,0,0,0,0,0,0,0,0,0,0,0,0],"id":15,"left_children":[1,3,5,7,9,11,13,15,17,-1,19,-1,-1,-1,-1,-1,21,-1,-1,-1,-1,-1,-1],"loss_changes":[7.315079E1,2.8534927E1,2.7501888E1,2.6057009E1,1.3832809E1,1.5536562E1,5.3539734E0,2.1592018E1,1.8521404E1,0E0,6.5336843E0,0E0,0E0,0E0,0E0,0E0,1.3181263E1,0E0,0E0,0E0,0E0,0E0,0E0],"parents":[2147483647,0,0,1,1,2,2,3,3,4,4,5,5,6,6,7,7,8,8,10,10,16,16],"right_children":[2,4,6,8,10,12,14,16,18,-1,20,-1,-1,-1,-1,-1,22,-1,-1,-1,-1,-1,-1],"split_conditions":[1E0,-1.9111856E0,3.554693E0,-5.016688E-1,3.0092018E0,1.6632396E0,2.7632291E0,1E0,2.0544434E0,-3.0785782E-2,-8.371938E-1,-2.9439474E-2,7.369637E-2,8.345439E-2,-1.6666444E-2,-2.8403658E-2,4.788782E-1,-3.061745E-2,7.035271E-2,7.268206E-2,-2.178824E-2,7.117798E-2,-2.4822677E-2],"split_indices":[56,79,67,64,60,75,73,41,57,0,69,0,0,0,0,0,57,0,0,0,0,0,0],"split_type":[0,0,0,0,0,0,0,0,0,0,0,0,0,0,0,0,0,0,0,0,0,0,0],"sum_hessian":[3.9990802E2,3.5723264E2,4.2675385E1,8.228451E1,2.7494815E2,1.6891453E1,2.578393E1,3.6164692E1,4.6119816E1,2.6865845E2,6.289698E0,1.2943267E1,3.948186E0,2.4695045E1,1.0888841E0,9.151252E0,2.7013441E1,4.19921E1,4.127716E0,3.9874864E0,2.3022115E0,2.3334742E1,3.6786985E0],"tree_param":{"num_deleted":"0","num_feature":"83","num_nodes":"23","size_leaf_vector":"1"}},{"base_weights":[5.9713036E-1,7.0873135E-1,-4.2616248E-1,3.360419E-1,8.1408536E-1,1.2858887E-1,-6.2981814E-1,6.8996644E-1,1.3101944E-1,8.399093E-1,3.0366687E-2,-5.647457E-1,5.575065E-1,-6.7826855E-1,3.2008797E-2,8.5032046E-1,-2.1105787E-2,-2.4704048E-1,4.607198E-1,8.5770804E-1,3.0391726E-1,5.895705E-1,-4.974477E-1,-3.2350283E-2,-3.6882502E-3,8.663565E-1,-2.0616692E-2,-7.2749174E-1,1.2782159E-2,4.500204E-2,-1.12294145E-2,-2.1408185E-2,2.9003093E-2,3.5361614E-2,-2.1293959E-2,2.6775664E-2,4.3558285E-2,2.7691094E-2,-1.6837753E-2,-1.0466003E-3,4.000221E-2,-3.328533E-2,1.3933986E-2,1.2361194E-2,4.7270447E-2,-1.9433593E-2,3.0457139E-2,-3.725861E-2,-2.2332142E-3],"categories":[],"categories_nodes":[],"categories_segments":[],"categories_sizes":[],"default_left":[0,0,0,0,0,0,0,0,0,0,0,0,0,0,0,0,0,0,0,0,0,0,0,0,0,0,0,0,0,0,0,0,0,0,0,0,0,0,0,0,0,0,0,0,0,0,0,0,0],"id":16,"left_children":[1,3,5,7,9,11,13,15,17,19,21,23,25,27,-1,29,-1,31,33,35,37,39,41,-1,-1,43,45,47,-1,-1,-1,-1,-1,-1,-1,-1,-1,-1,-1,-1,-1,-1,-1,-1,-1,-1,-1,-1,-1],"loss_changes":[7.071352E1,2.1569366E1,7.001423E0,8.929465E0,8.7378845E0,5.453394E0,3.201622E0,8.447973E0,1.0078563E1,3.738037E0,4.6763463E0,2.3905969E-1,2.0138059E0,2.1998444E0,0E0,2.3386517E0,0E0,5.9248323E0,9.7106E0,1.2901306E0,2.5913403E0,1.0020719E0,1.2539816E0,0E0,0E0,1.24016285E-1,1.36536E0,4.7225952E-1,0E0,0E0,0E0,0E0,0E0,0E0,0E0,0E0,0E0,0E0,0E0,0E0,0E0,0E0,0E0,0E0,0E0,0E0,0E0,0E0,0E0],"parents":[2147483647,0,0,1,1,2,2,3,3,4,4,5,5,6,6,7,7,8,8,9,9,10,10,11,11,12,12,13,13,15,15,17,17,18,18,19,19,20,20,21,21,22,22,25,25,26,26,27,27],"right_children":[2,4,6,8,10,12,14,16,18,20,22,24,26,28,-1,30,-1,32,34,36,38,40,42,-1,-1,44,46,48,-1,-1,-1,-1,-1,-1,-1,-1,-1,-1,-1,-1,-1,-1,-1,-1,-1,-1,-1,-1,-1],"split_conditions":[1E0,-1.9111856E0,-1.9158642E-1,1E0,2.3699112E0,-6.100229E-1,7.017061E-1,2.0544434E0,-5.016688E-1,2.1465957E0,2.239315E-1,-1.06554195E-1,2.4170736E-2,1.2058641E0,3.2008797E-2,2.8562875E0,-2.1105787E-2,4.788782E-1,2.112363E0,-9.5916384E-1,3.7742314E-1,2.2273436E-1,-3.0993348E-1,-3.2350283E-2,-3.6882502E-3,-4.3288758E-1,3.7590247E-1,1.2458718E1,1.2782159E-2,4.500204E-2,-1.12294145E-2,-2.1408185E-2,2.9003093E-2,3.5361614E-2,-2.1293959E-2,2.6775664E-2,4.3558285E-2,2.7691094E-2,-1.6837753E-2,-1.0466003E-3,4.000221E-2,-3.328533E-2,1.3933986E-2,1.2361194E-2,4.7270447E-2,-1.9433593E-2,3.0457139E-2,-3.725861E-2,-2.2332142E-3],"split_indices":[56,79,73,41,58,64,58,57,64,80,72,82,80,70,0,66,0,57,80,64,62,78,75,0,0,82,77,73,0,0,0,0,0,0,0,0,0,0,0,0,0,0,0,0,0,0,0,0,0],"split_type":[0,0,0,0,0,0,0,0,0,0,0,0,0,0,0,0,0,0,0,0,0,0,0,0,0,0,0,0,0,0,0,0,0,0,0,0,0,0,0,0,0,0,0,0,0,0,0,0,0],"sum_hessian":[6.1556006E2,5.553055E2,6.0254566E1,1.233048E2,4.3200067E2,1.627919E1,4.3975376E1,4.4360752E1,7.894405E1,4.1815067E2,1.3850005E1,6.100771E0,1.017842E1,4.280817E1,1.1672078E0,3.897607E1,5.38468E0,3.6891785E1,4.2052265E1,4.0413046E2,1.4020194E1,6.668219E0,7.1817865E0,4.9531307E0,1.1476401E0,6.3092628E0,3.8691568E0,4.087483E1,1.9333404E0,3.740841E1,1.5676601E0,3.0660025E1,6.23176E0,3.306194E1,8.990327E0,1.7838766E1,3.862917E2,1.0183512E1,3.836682E0,1.9404042E0,4.7278147E0,6.019149E0,1.1626372E0,1.181691E0,5.127572E0,2.6835904E0,1.1855664E0,3.975417E1,1.1206596E0],"tree_param":{"num_deleted":"0","num_feature":"83","num_nodes":"49","size_leaf_vector":"1"}},{"base_weights":[-3.4637997E-1,-3.7890995E-1,-3.958262E-2,-3.8444883E-1,3.8202187E-1,-2.1452934E-1,6.4405954E-1,-5.632011E-2,-3.9862645E-1,4.2616366E-3,2.4455694E-2,-2.9987985E-1,4.082977E-2,9.357774E-1,-1.858749E-2,-2.1097848E-1,3.3069555E-2,-2.7414262E-1,-4.4071984E-1,3.323711E-2,-3.696262E-1,-2.23672E-3,1.2336578E0,-1.8333972E-2,3.7308045E-2,1.465902E-2,-1.6279249E-2,-9.2450045E-3,-2.2848707E-2,-2.1996353E-2,1.5986294E-2,6.881348E-2,1.9975297E-2],"categories":[],"categories_nodes":[],"categories_segments":[],"categories_sizes":[],"default_left":[0,0,0,0,0,0,0,0,0,0,0,0,0,0,0,0,0,0,0,0,0,0,0,0,0,0,0,0,0,0,0,0,0],"id":17,"left_children":[1,3,5,7,9,11,13,15,17,-1,-1,19,-1,21,-1,23,-1,25,27,-1,29,-1,31,-1,-1,-1,-1,-1,-1,-1,-1,-1,-1],"loss_changes":[3.8179588E0,1.6098938E0,4.6752186E0,1.5830498E0,5.3982645E-2,2.9691727E0,2.7124405E0,1.8554274E0,1.6117935E0,0E0,0E0,2.2183464E0,0E0,1.9488688E0,0E0,2.2819028E0,0E0,2.611185E0,9.361458E-1,0E0,1.4969137E0,0E0,4.589796E-2,0E0,0E0,0E0,0E0,0E0,0E0,0E0,0E0,0E0,0E0],"parents":[2147483647,0,0,1,1,2,2,3,3,4,4,5,5,6,6,7,7,8,8,11,11,13,13,15,15,17,17,18,18,20,20,22,22],"right_children":[2,4,6,8,10,12,14,16,18,-1,-1,20,-1,22,-1,24,-1,26,28,-1,30,-1,32,-1,-1,-1,-1,-1,-1,-1,-1,-1,-1],"split_conditions":[1.7015711E0,7.2202234E0,1E0,-6.021825E-1,-7.2700423E-1,2.7632291E0,1.3454391E0,4.6919534E-1,1E0,4.2616366E-3,2.4455694E-2,-8.371938E-1,4.082977E-2,2.112363E0,-1.858749E-2,1.3454391E0,3.3069555E-2,-9.776996E-1,1E0,3.323711E-2,1.0485606E0,-2.23672E-3,-2.397562E-1,-1.8333972E-2,3.7308045E-2,1.465902E-2,-1.6279249E-2,-9.2450045E-3,-2.2848707E-2,-2.1996353E-2,1.5986294E-2,6.881348E-2,1.9975297E-2],"split_indices":[80,67,34,82,58,73,57,80,53,0,0,69,0,80,0,57,0,61,27,0,58,0,58,0,0,0,0,0,0,0,0,0,0],"split_type":[0,0,0,0,0,0,0,0,0,0,0,0,0,0,0,0,0,0,0,0,0,0,0,0,0,0,0,0,0,0,0,0,0],"sum_hessian":[3.8305905E2,3.4612415E2,3.6934895E1,3.4411407E2,2.0100636E0,2.9955389E1,6.9795055E0,1.4458444E1,3.2965564E2,1.0091742E0,1.0008894E0,2.8320366E1,1.6350237E0,5.4835405E0,1.4959648E0,1.2476043E1,1.9824015E0,8.520111E1,2.4445453E2,1.3343849E0,2.6985981E1,1.4757484E0,4.007792E0,1.1261069E1,1.2149737E0,6.6926947E0,7.8508415E1,1.5343574E1,2.2911096E2,2.4816948E1,2.169033E0,2.8676229E0,1.1401694E0],"tree_param":{"num_deleted":"0","num_feature":"83","num_nodes":"33","size_leaf_vector":"1"}},{"base_weights":[-4.50427E-1,-4.8284534E-1,-1.6368668E-1,3.5380453E-1,-4.8922434E-1,-3.5384944E-1,4.8677292E-1,3.4854733E-3,2.3246286E-2,1.3359927E-2,-4.93518E-1,1.1906473E-1,-4.116128E-1,9.205494E-1,-2.2095446E-2,-5.405852E-1,-4.185252E-1,3.613913E-2,-1.97947E-2,-2.8370112E-2,-1.9876021E-1,6.823169E-2,1.9998193E-1,-2.7213437E-2,2.1874744E-3,-1.2368279E-2,-2.3820035E-2,-2.614746E-2,7.6736696E-3,-1.9196888E-2,4.387496E-2],"categories":[],"categories_nodes":[],"categories_segments":[],"categories_sizes":[],"default_left":[0,0,0,0,0,0,0,0,0,0,0,0,0,0,0,0,0,0,0,0,0,0,0,0,0,0,0,0,0,0,0],"id":18,"left_children":[1,3,5,7,9,11,13,-1,-1,-1,15,17,19,21,-1,23,25,-1,-1,-1,27,-1,29,-1,-1,-1,-1,-1,-1,-1,-1],"loss_changes":[3.3436508E0,1.935852E0,4.9855022E0,6.480852E-2,1.1978302E0,8.873489E-1,4.1224675E0,0E0,0E0,0E0,9.269409E-1,1.5658E0,8.0155134E-1,1.8427005E0,0E0,4.4849014E-1,1.1739922E0,0E0,0E0,0E0,1.5866171E0,0E0,1.7977769E0,0E0,0E0,0E0,0E0,0E0,0E0,0E0,0E0],"parents":[2147483647,0,0,1,1,2,2,3,3,4,4,5,5,6,6,10,10,11,11,12,12,13,13,15,15,16,16,20,20,22,22],"right_children":[2,4,6,8,10,12,14,-1,-1,-1,16,18,20,22,-1,24,26,-1,-1,-1,28,-1,30,-1,-1,-1,-1,-1,-1,-1,-1],"split_conditions":[1.131145E0,-1.4181577E0,5.7937473E-1,1.6376515E-1,-5.561844E0,-1.8039988E0,1E0,3.4854733E-3,2.3246286E-2,1.3359927E-2,1E0,-7.18377E-1,1.7278437E-1,1E0,-2.2095446E-2,5.7259097E0,-5.69464E-1,3.613913E-2,-1.97947E-2,-2.8370112E-2,-8.7629594E-2,6.823169E-2,1E0,-2.7213437E-2,2.1874744E-3,-1.2368279E-2,-2.3820035E-2,-2.614746E-2,7.6736696E-3,-1.9196888E-2,4.387496E-2],"split_indices":[58,65,72,57,79,81,47,0,0,0,4,64,81,3,0,68,71,0,0,0,63,0,34,0,0,0,0,0,0,0,0],"split_type":[0,0,0,0,0,0,0,0,0,0,0,0,0,0,0,0,0,0,0,0,0,0,0,0,0,0,0,0,0,0,0],"sum_hessian":[3.672033E2,3.2929044E2,3.7912872E1,2.079548E0,3.2721088E2,2.9689196E1,8.223676E0,1.0422459E0,1.0373021E0,1.5012534E0,3.2570963E2,3.1161041E0,2.6573092E1,5.611409E0,2.612267E0,1.9629922E2,1.294104E2,1.2486551E0,1.8674493E0,1.4381437E1,1.2191654E1,2.9187548E0,2.6926541E0,1.9513766E2,1.1615499E0,3.4033787E1,9.537662E1,6.0961814E0,6.0954733E0,1.6789577E0,1.0136966E0],"tree_param":{"num_deleted":"0","num_feature":"83","num_nodes":"31","size_leaf_vector":"1"}},{"base_weights":[-1.8568508E-1,-3.6701092E-1,1.0756644E0,-5.3156763E-1,-1.1666506E-2,-2.5686461E-2,1.2433265E0,-5.704902E-1,8.491633E-1,-4.3248618E-1,3.9139095E-1,-2.2189057E-2,1.342298E0,-3.0539786E-2,8.060189E-1,7.458394E-2,-2.0936543E-2,6.5934056E-1,-3.0298814E-2,9.9446046E-1,-4.5035563E-2,-1.9871788E-2,1.4236664E0,6.8144076E-2,-2.0781009E-2,-2.3791378E-2,7.8598194E-2,-2.558966E-2,6.965547E-2,7.156928E-2,-1.418552E-2,7.531946E-2,4.012148E-2],"categories":[],"categories_nodes":[],"categories_segments":[],"categories_sizes":[],"default_left":[0,0,0,0,0,0,0,0,0,0,0,0,0,0,0,0,0,0,0,0,0,0,0,0,0,0,0,0,0,0,0,0,0],"id":19,"left_children":[1,3,5,7,9,-1,11,13,15,17,19,-1,21,-1,23,-1,-1,25,-1,27,29,-1,31,-1,-1,-1,-1,-1,-1,-1,-1,-1,-1],"loss_changes":[9.3350876E1,2.081593E1,1.4319115E1,1.3562973E1,1.9459606E1,0E0,8.398575E0,1.3657135E1,6.3874083E0,1.1028782E1,1.5472291E1,0E0,6.8496017E0,0E0,5.451848E0,0E0,0E0,9.214908E0,0E0,1.55162735E1,1.2726578E1,0E0,9.817276E-1,0E0,0E0,0E0,0E0,0E0,0E0,0E0,0E0,0E0,0E0],"parents":[2147483647,0,0,1,1,2,2,3,3,4,4,6,6,7,7,8,8,9,9,10,10,12,12,14,14,17,17,19,19,20,20,22,22],"right_children":[2,4,6,8,10,-1,12,14,16,18,20,-1,22,-1,24,-1,-1,26,-1,28,30,-1,32,-1,-1,-1,-1,-1,-1,-1,-1,-1,-1],"split_conditions":[1E0,-1.6832972E-2,-7.3682106E-1,2.716657E0,-2.839232E-1,-2.5686461E-2,1E0,3.0092018E0,-1.3547903E0,-1.6874623E0,-5.845431E-1,-2.2189057E-2,1E0,-3.0539786E-2,-8.371938E-1,7.458394E-2,-2.0936543E-2,8.727695E-1,-3.0298814E-2,4.698296E-1,-1.1268842E-2,-1.9871788E-2,6.763907E-1,6.8144076E-2,-2.0781009E-2,-2.3791378E-2,7.8598194E-2,-2.558966E-2,6.965547E-2,7.156928E-2,-1.418552E-2,7.531946E-2,4.012148E-2],"split_indices":[56,82,60,81,80,0,6,60,61,80,60,0,4,0,69,0,0,57,0,82,82,0,73,0,0,0,0,0,0,0,0,0,0],"split_type":[0,0,0,0,0,0,0,0,0,0,0,0,0,0,0,0,0,0,0,0,0,0,0,0,0,0,0,0,0,0,0,0,0],"sum_hessian":[4.0542725E2,3.5509015E2,5.0337105E1,2.4235968E2,1.1273046E2,4.606321E0,4.573078E1,2.3628564E2,6.074026E0,5.5114315E1,5.7616146E1,2.3410127E0,4.338977E1,2.3010425E2,6.18141E0,3.9140491E0,2.1599767E0,7.1728573E0,4.7941456E1,2.365298E1,3.3963165E1,1.7651305E0,4.1624638E1,4.166546E0,2.014864E0,3.4099724E0,3.7628846E0,4.8905864E0,1.8762394E1,4.0309362E0,2.9932228E1,3.5475903E1,6.1487374E0],"tree_param":{"num_deleted":"0","num_feature":"83","num_nodes":"33","size_leaf_vector":"1"}},{"base_weights":[5.7389444E-1,6.638767E-1,-3.7252083E-1,2.3498705E-1,7.903201E-1,1.5017198E-1,-5.9811145E-1,-2.1205649E-1,3.8710603E-1,8.162397E-1,1.2576601E-1,-4.932853E-1,6.3849825E-1,-6.526419E-1,3.1550016E-2,-5.384104E-1,4.7530514E-1,1.232336E-1,5.820594E-1,8.292897E-1,1.20894276E-1,-5.4194415E-1,4.997362E-1,-3.3101473E-2,1.4139662E-2,4.647317E-2,4.4846006E-2,-6.8846107E-1,5.8950908E-3,3.4973018E-2,-3.285298E-2,3.8689777E-2,-8.204146E-3,-5.9302202E-3,3.9730493E-2,-2.0148583E-2,3.596763E-2,7.1282173E-3,4.1740928E-2,-1.4147927E-2,3.355631E-2,-3.710698E-3,-3.1075258E-2,-9.945116E-3,3.1062065E-2,2.4949433E-2,-2.5136635E-2,-3.5383377E-2,-2.184567E-3],"categories":[],"categories_nodes":[],"categories_segments":[],"categories_sizes":[],"default_left":[0,0,0,0,0,0,0,0,0,0,0,0,0,0,0,0,0,0,0,0,0,0,0,0,0,0,0,0,0,0,0,0,0,0,0,0,0,0,0,0,0,0,0,0,0,0,0,0,0],"id":20,"left_children":[1,3,5,7,9,11,13,15,17,19,21,23,25,27,-1,29,31,33,35,37,39,41,43,-1,-1,-1,45,47,-1,-1,-1,-1,-1,-1,-1,-1,-1,-1,-1,-1,-1,-1,-1,-1,-1,-1,-1,-1,-1],"loss_changes":[5.4298294E1,3.126506E1,6.6631036E0,9.1586485E0,7.6051636E0,5.846917E0,3.0351782E0,8.002369E0,5.0694017E0,3.8061829E0,4.7604947E0,1.2558845E0,1.7625356E0,1.129139E0,0E0,3.967502E0,2.3500953E0,7.1947894E0,8.026388E0,1.4847717E0,2.2123106E0,2.11936E-1,1.1460693E0,0E0,0E0,0E0,1.3665026E0,4.2020798E-1,0E0,0E0,0E0,0E0,0E0,0E0,0E0,0E0,0E0,0E0,0E0,0E0,0E0,0E0,0E0,0E0,0E0,0E0,0E0,0E0,0E0],"parents":[2147483647,0,0,1,1,2,2,3,3,4,4,5,5,6,6,7,7,8,8,9,9,10,10,11,11,12,12,13,13,15,15,16,16,17,17,18,18,19,19,20,20,21,21,22,22,26,26,27,27],"right_children":[2,4,6,8,10,12,14,16,18,20,22,24,26,28,-1,30,32,34,36,38,40,42,44,-1,-1,-1,46,48,-1,-1,-1,-1,-1,-1,-1,-1,-1,-1,-1,-1,-1,-1,-1,-1,-1,-1,-1,-1,-1],"split_conditions":[1E0,-1.9111856E0,-1.9158642E-1,-3.6234045E0,1.9569892E0,-2.733106E-1,7.017061E-1,-1.0260085E0,-3.1740165E-1,4.0978575E0,1E0,-6.352703E-1,2.4170736E-2,1.2058641E0,3.1550016E-2,-1.0619255E0,2.4550338E0,1E0,-1.2654246E0,-2.6777413E0,-3.3715892E-1,2.700249E0,-1.8039988E0,-3.3101473E-2,1.4139662E-2,4.647317E-2,-2.886968E-1,1.2458718E1,5.8950908E-3,3.4973018E-2,-3.285298E-2,3.8689777E-2,-8.204146E-3,-5.9302202E-3,3.9730493E-2,-2.0148583E-2,3.596763E-2,7.1282173E-3,4.1740928E-2,-1.4147927E-2,3.355631E-2,-3.710698E-3,-3.1075258E-2,-9.945116E-3,3.1062065E-2,2.4949433E-2,-2.5136635E-2,-3.5383377E-2,-2.184567E-3],"split_indices":[56,79,73,79,58,71,58,70,76,80,23,63,80,70,0,62,67,40,71,75,70,58,81,0,0,0,60,73,0,0,0,0,0,0,0,0,0,0,0,0,0,0,0,0,0,0,0,0,0],"split_type":[0,0,0,0,0,0,0,0,0,0,0,0,0,0,0,0,0,0,0,0,0,0,0,0,0,0,0,0,0,0,0,0,0,0,0,0,0,0,0,0,0,0,0,0,0,0,0,0,0],"sum_hessian":[6.3369525E2,5.789491E2,5.474615E1,1.3247134E2,4.4647775E2,1.660552E1,3.814063E1,3.353259E1,9.893876E1,4.2949777E2,1.6979973E1,7.160338E0,9.445183E0,3.6969467E1,1.1711643E0,2.2884098E1,1.0648491E1,4.2732185E1,5.6206573E1,4.2139655E2,8.101234E0,5.9346704E0,1.1045302E1,6.00222E0,1.1581177E0,5.9588957E0,3.4862876E0,3.542905E1,1.540414E0,1.5734154E0,2.1310684E1,7.1161785E0,3.5323124E0,3.2021126E1,1.0711062E1,6.6389947E0,4.956758E1,3.5795135E0,4.1781702E2,4.952214E0,3.149021E0,1.1437114E0,4.790959E0,1.542002E0,9.503301E0,1.954243E0,1.5320446E0,3.4309486E1,1.1195664E0],"tree_param":{"num_deleted":"0","num_feature":"83","num_nodes":"49","size_leaf_vector":"1"}},{"base_weights":[-3.290569E-1,-3.7566447E-1,-1.67801E-1,2.7674672E-1,-3.860285E-1,-2.879921E-1,1.4198503E-1,4.484627E-2,-2.0737449E-2,2.3094166E-2,-3.9290434E-1,-3.317363E-1,4.7146868E-2,-8.771146E-2,8.1706476E-1,-4.6490404E-1,-3.1370303E-1,-1.1759575E-1,-4.858991E-1,7.0320755E-1,-3.5981885E-1,-1.6280038E-2,1.1032058E0,1.9565025E-2,-2.3728503E-2,2.440867E-2,-1.6363967E-2,-1.0670031E-2,4.538331E-2,1.2184015E-2,-2.7427351E-2,-1.657418E-2,5.399711E-2,6.3629732E-3,-2.4728483E-2,3.1494217E-3,6.715634E-2],"categories":[],"categories_nodes":[],"categories_segments":[],"categories_sizes":[],"default_left":[0,0,0,0,0,0,0,0,0,0,0,0,0,0,0,0,0,0,0,0,0,0,0,0,0,0,0,0,0,0,0,0,0,0,0,0,0],"id":21,"left_children":[1,3,5,7,9,11,13,-1,-1,-1,15,17,-1,19,21,23,25,27,29,31,33,-1,35,-1,-1,-1,-1,-1,-1,-1,-1,-1,-1,-1,-1,-1,-1],"loss_changes":[2.7827911E0,2.0875778E0,3.2693582E0,2.5862567E0,1.8650742E0,3.6944065E0,3.933888E0,0E0,0E0,0E0,1.4907379E0,1.9693599E0,0E0,4.4469566E0,2.4583778E0,1.4126854E0,1.6810188E0,2.847139E0,1.7504015E0,2.4343514E0,1.0579835E0,0E0,1.2536759E0,0E0,0E0,0E0,0E0,0E0,0E0,0E0,0E0,0E0,0E0,0E0,0E0,0E0,0E0],"parents":[2147483647,0,0,1,1,2,2,3,3,4,4,5,5,6,6,10,10,11,11,13,13,14,14,15,15,16,16,17,17,18,18,19,19,20,20,22,22],"right_children":[2,4,6,8,10,12,14,-1,-1,-1,16,18,-1,20,22,24,26,28,30,32,34,-1,36,-1,-1,-1,-1,-1,-1,-1,-1,-1,-1,-1,-1,-1,-1],"split_conditions":[6.745913E-1,-3.3669775E0,1E0,1.6826472E-1,-2.0070627E0,2.7632291E0,2.1465957E0,4.484627E-2,-2.0737449E-2,2.3094166E-2,-1.9927223E-1,1E0,4.7146868E-2,7.4305665E-1,1E0,-4.8812696E-1,-1.52198E0,3.3609128E-1,1E0,-6.487798E-1,1E0,-1.6280038E-2,-6.8052155E-1,1.9565025E-2,-2.3728503E-2,2.440867E-2,-1.6363967E-2,-1.0670031E-2,4.538331E-2,1.2184015E-2,-2.7427351E-2,-1.657418E-2,5.399711E-2,6.3629732E-3,-2.4728483E-2,3.1494217E-3,6.715634E-2],"split_indices":[80,77,34,78,58,73,80,0,0,0,71,41,0,80,11,59,70,59,13,78,25,0,71,0,0,0,0,0,0,0,0,0,0,0,0,0,0],"split_type":[0,0,0,0,0,0,0,0,0,0,0,0,0,0,0,0,0,0,0,0,0,0,0,0,0,0,0,0,0,0,0,0,0,0,0,0,0],"sum_hessian":[3.7764853E2,2.9193988E2,8.570864E1,4.1632347E0,2.8777664E2,6.1801273E1,2.390737E1,2.0381806E0,2.1250544E0,1.7825499E0,2.859941E2,6.038581E1,1.4154646E0,1.8487167E1,5.4202027E0,1.4725697E2,1.3873712E2,2.6013891E1,3.4371918E1,4.3266983E0,1.4160469E1,1.0578642E0,4.3623385E0,1.2031345E0,1.4605385E2,1.7277995E0,1.3700932E2,2.4514965E1,1.4989263E0,2.4895597E0,3.1882357E1,1.1869332E0,3.1397653E0,3.0806303E0,1.1079839E1,1.0542027E0,3.308136E0],"tree_param":{"num_deleted":"0","num_feature":"83","num_nodes":"37","size_leaf_vector":"1"}},{"base_weights":[-4.4365188E-1,-4.7662252E-1,-1.5155767E-1,-5.318293E-1,-3.9007208E-1,2.1547866E-1,-3.3422413E-1,-5.3946227E-1,1.1536575E-2,-4.0524846E-1,1.8129716E-2,5.582793E-1,-2.4097366E-2,-3.8581523E-1,1.9969672E-2,1.4572913E-3,-5.431634E-1,-4.904389E-1,-2.4206243E-1,7.6977336E-1,-1.8018609E-2,2.1043445E-1,-4.6740487E-1,-2.7335007E-2,-8.3645005E-3,-2.5791546E-2,6.356561E-3,1.0812835E-2,-1.7613607E-2,5.008821E-2,-1.6133184E-2,-1.7898329E-2,3.650084E-2,-2.4895953E-2,2.0076975E-3],"categories":[],"categories_nodes":[],"categories_segments":[],"categories_sizes":[],"default_left":[0,0,0,0,0,0,0,0,0,0,0,0,0,0,0,0,0,0,0,0,0,0,0,0,0,0,0,0,0,0,0,0,0,0,0],"id":22,"left_children":[1,3,5,7,9,11,13,15,-1,17,-1,19,-1,21,-1,-1,23,25,27,29,-1,31,33,-1,-1,-1,-1,-1,-1,-1,-1,-1,-1,-1,-1],"loss_changes":[3.4031982E0,1.3397522E0,2.6243756E0,1.259201E0,1.63027E0,3.4388573E0,1.1309819E0,4.2266846E-1,0E0,1.6574249E0,0E0,2.0944946E0,0E0,1.2962399E0,0E0,0E0,1.6394043E-1,1.3666134E0,2.389384E0,2.3307328E0,0E0,1.3402905E0,3.6026096E-1,0E0,0E0,0E0,0E0,0E0,0E0,0E0,0E0,0E0,0E0,0E0,0E0],"parents":[2147483647,0,0,1,1,2,2,3,3,4,4,5,5,6,6,7,7,9,9,11,11,13,13,16,16,17,17,18,18,19,19,21,21,22,22],"right_children":[2,4,6,8,10,12,14,16,-1,18,-1,20,-1,22,-1,-1,24,26,28,30,-1,32,34,-1,-1,-1,-1,-1,-1,-1,-1,-1,-1,-1,-1],"split_conditions":[1.131145E0,1E0,-5.900012E-1,4.275606E0,1.6934144E0,1E0,2.2288597E0,-4.834929E0,1.1536575E-2,1E0,1.8129716E-2,-3.0169696E-1,-2.4097366E-2,-1.8039988E0,1.9969672E-2,1.4572913E-3,2.4559894E0,2.7526414E0,-6.4614093E-1,1E0,-1.8018609E-2,1E0,5.856134E-1,-2.7335007E-2,-8.3645005E-3,-2.5791546E-2,6.356561E-3,1.0812835E-2,-1.7613607E-2,5.008821E-2,-1.6133184E-2,-1.7898329E-2,3.650084E-2,-2.4895953E-2,2.0076975E-3],"split_indices":[58,4,77,66,78,40,81,79,0,0,0,66,0,81,0,0,78,82,64,37,0,30,67,0,0,0,0,0,0,0,0,0,0,0,0],"split_type":[0,0,0,0,0,0,0,0,0,0,0,0,0,0,0,0,0,0,0,0,0,0,0,0,0,0,0,0,0,0,0,0,0,0,0],"sum_hessian":[3.5987656E2,3.2280737E2,3.7069187E1,1.939502E2,1.2885718E2,1.2258415E1,2.4810772E1,1.9231772E2,1.6324624E0,1.2676279E2,2.0943995E0,8.352492E0,3.9059236E0,2.3623554E1,1.1872165E0,1.199275E0,1.9111845E2,8.196695E1,4.4795837E1,6.92115E0,1.4313418E0,2.6534204E0,2.0970135E1,1.8888667E2,2.2317758E0,7.888812E1,3.078824E0,8.497174E0,3.6298664E1,5.777282E0,1.1438681E0,1.415726E0,1.2376946E0,1.9798832E1,1.1713027E0],"tree_param":{"num_deleted":"0","num_feature":"83","num_nodes":"35","size_leaf_vector":"1"}},{"base_weights":[-1.8190071E-1,5.048081E-1,-5.031602E-1,2.3782523E-1,1.1262711E0,-5.702222E-1,1.1187088E0,-1.8144993E-1,6.503927E-1,1.2596347E0,-2.3497649E-2,-3.029391E-2,5.465748E-1,6.905251E-2,-1.8470526E-2,6.9117314E-1,-2.9987354E-2,8.518871E-1,-2.6904011E-2,1.3203177E0,-1.6875869E-2,6.435622E-2,-2.3725599E-2,-2.615405E-2,7.0384495E-2,-2.5883978E-2,5.236851E-2,-1.5580851E-2,6.8917885E-2],"categories":[],"categories_nodes":[],"categories_segments":[],"categories_sizes":[],"default_left":[0,0,0,0,0,0,0,0,0,0,0,0,0,0,0,0,0,0,0,0,0,0,0,0,0,0,0,0,0],"id":23,"left_children":[1,3,5,7,9,11,13,15,17,19,-1,-1,21,-1,-1,23,-1,25,-1,27,-1,-1,-1,-1,-1,-1,-1,-1,-1],"loss_changes":[8.908382E1,2.1108025E1,3.0528923E1,1.5925775E1,8.776539E0,1.0866455E1,4.9020557E0,1.7243965E1,1.1540899E1,3.9109344E0,0E0,0E0,7.1979437E0,0E0,0E0,1.4138632E1,0E0,1.1239916E1,0E0,3.711399E0,0E0,0E0,0E0,0E0,0E0,0E0,0E0,0E0,0E0],"parents":[2147483647,0,0,1,1,2,2,3,3,4,4,5,5,6,6,7,7,8,8,9,9,12,12,15,15,17,17,19,19],"right_children":[2,4,6,8,10,12,14,16,18,20,-1,-1,22,-1,-1,24,-1,26,-1,28,-1,-1,-1,-1,-1,-1,-1,-1,-1],"split_conditions":[-1.9111856E0,1E0,5.754011E0,-2.839232E-1,2.104284E-2,2.700249E0,-8.3427966E-1,-6.8052155E-1,5.7937473E-1,3.613223E0,-2.3497649E-2,-3.029391E-2,1E0,6.905251E-2,-1.8470526E-2,1.2457376E0,-2.9987354E-2,-7.7128786E-1,-2.6904011E-2,-1.3547903E0,-1.6875869E-2,6.435622E-2,-2.3725599E-2,-2.615405E-2,7.0384495E-2,-2.5883978E-2,5.236851E-2,-1.5580851E-2,6.8917885E-2],"split_indices":[79,56,67,80,70,58,79,71,72,74,0,0,27,0,0,81,0,62,0,61,0,0,0,0,0,0,0,0,0],"split_type":[0,0,0,0,0,0,0,0,0,0,0,0,0,0,0,0,0,0,0,0,0,0,0,0,0,0,0,0,0],"sum_hessian":[4.016523E2,1.2783245E2,2.7381985E2,9.038528E1,3.7447178E1,2.6357E2,1.0249835E1,4.510606E1,4.5279217E1,3.4754337E1,2.6928375E0,2.558587E2,7.7113047E0,8.77486E0,1.474975E0,1.44043455E1,3.0701715E1,3.895754E1,6.321676E0,3.3649185E1,1.1051548E0,4.31864E0,3.3926647E0,5.445696E0,8.95865E0,4.6601353E0,3.4297405E1,1.0055884E0,3.2643597E1],"tree_param":{"num_deleted":"0","num_feature":"83","num_nodes":"29","size_leaf_vector":"1"}},{"base_weights":[5.432558E-1,6.298018E-1,-3.5787606E-1,2.4725355E-1,7.4457556E-1,1.06657326E-1,-5.6741506E-1,6.455779E-1,5.091766E-2,7.6766455E-1,-1.7373267E-3,-5.583246E-1,5.040197E-1,-6.209505E-1,3.106979E-2,8.019083E-1,-2.0911438E-2,8.123974E-1,-7.30521E-2,8.040315E-1,5.8901566E-1,-5.3210735E-1,4.270348E-1,-3.9785122E-3,-3.1718545E-2,7.273684E-1,-3.1600004E-1,-6.744615E-1,1.1966414E-2,4.8139304E-2,2.2335766E-2,4.552342E-2,-4.802581E-3,-2.0214306E-2,1.2665051E-2,4.1216027E-2,2.1678941E-2,3.0621624E-2,-2.473126E-2,-3.8185709E-3,-3.0506784E-2,3.218871E-2,-8.7458146E-4,4.209047E-2,3.9776755E-3,-2.1649567E-2,-2.4893933E-3,-3.5687726E-2,-2.9816662E-3],"categories":[],"categories_nodes":[],"categories_segments":[],"categories_sizes":[],"default_left":[0,0,0,0,0,0,0,0,0,0,0,0,0,0,0,0,0,0,0,0,0,0,0,0,0,0,0,0,0,0,0,0,0,0,0,0,0,0,0,0,0,0,0,0,0,0,0,0,0],"id":24,"left_children":[1,3,5,7,9,11,13,15,17,19,21,23,25,27,-1,29,-1,31,33,35,37,39,41,-1,-1,43,45,47,-1,-1,-1,-1,-1,-1,-1,-1,-1,-1,-1,-1,-1,-1,-1,-1,-1,-1,-1,-1,-1],"loss_changes":[4.966971E1,2.522882E1,5.5300617E0,1.0530642E1,7.664627E0,5.1193914E0,2.8604546E0,7.7378063E0,8.702932E0,2.3290863E0,3.4890394E0,2.1612954E-1,2.4251437E0,1.8972282E0,0E0,1.8070927E0,0E0,1.2369251E0,8.713693E0,2.3159027E0,2.2492485E0,1.9725013E-1,8.2887185E-1,0E0,0E0,6.5388393E-1,8.006626E-2,8.213558E-1,0E0,0E0,0E0,0E0,0E0,0E0,0E0,0E0,0E0,0E0,0E0,0E0,0E0,0E0,0E0,0E0,0E0,0E0,0E0,0E0,0E0],"parents":[2147483647,0,0,1,1,2,2,3,3,4,4,5,5,6,6,7,7,8,8,9,9,10,10,11,11,12,12,13,13,15,15,17,17,18,18,19,19,20,20,21,21,22,22,25,25,26,26,27,27],"right_children":[2,4,6,8,10,12,14,16,18,20,22,24,26,28,-1,30,-1,32,34,36,38,40,42,-1,-1,44,46,48,-1,-1,-1,-1,-1,-1,-1,-1,-1,-1,-1,-1,-1,-1,-1,-1,-1,-1,-1,-1,-1],"split_conditions":[1E0,-1.9111856E0,-1.9158642E-1,1E0,2.3699112E0,-2.607564E-1,7.017061E-1,2.0544434E0,-7.601785E-2,6.745913E-1,1E0,1E0,7.4305665E-1,1.2058641E0,3.106979E-2,5.123028E-1,-2.0911438E-2,8.816878E-1,-4.7759014E-1,1.3788983E0,1.71959E0,2.700249E0,9.5479774E-1,-3.9785122E-3,-3.1718545E-2,1.3454391E0,1E0,-9.755976E-1,1.1966414E-2,4.8139304E-2,2.2335766E-2,4.552342E-2,-4.802581E-3,-2.0214306E-2,1.2665051E-2,4.1216027E-2,2.1678941E-2,3.0621624E-2,-2.473126E-2,-3.8185709E-3,-3.0506784E-2,3.218871E-2,-8.7458146E-4,4.209047E-2,3.9776755E-3,-2.1649567E-2,-2.4893933E-3,-3.5687726E-2,-2.9816662E-3],"split_indices":[56,79,73,41,58,59,58,57,59,80,23,45,80,70,0,67,0,71,64,58,64,58,65,0,0,57,41,78,0,0,0,0,0,0,0,0,0,0,0,0,0,0,0,0,0,0,0,0,0],"split_type":[0,0,0,0,0,0,0,0,0,0,0,0,0,0,0,0,0,0,0,0,0,0,0,0,0,0,0,0,0,0,0,0,0,0,0,0,0,0,0,0,0,0,0,0,0,0,0,0,0],"sum_hessian":[6.329882E2,5.777969E2,5.5191315E1,1.34074E2,4.437229E2,1.7309141E1,3.788217E1,4.351106E1,9.056295E1,4.3037946E2,1.3343439E1,6.322846E0,1.0986296E1,3.6706833E1,1.1753399E0,3.815084E1,5.36022E0,1.1902021E1,7.866093E1,3.5467813E2,7.57013E1,5.8572755E0,7.486164E0,1.1471608E0,5.175685E0,8.723313E0,2.2629824E0,3.476065E1,1.9461818E0,2.5080513E1,1.3070327E1,1.0740334E1,1.1616879E0,3.8920025E1,3.9740902E1,3.3510016E2,1.957799E1,7.452569E1,1.175614E0,1.145512E0,4.7117634E0,4.731154E0,2.7550101E0,7.1591425E0,1.5641714E0,1.1368748E0,1.1261075E0,3.2521347E1,2.239303E0],"tree_param":{"num_deleted":"0","num_feature":"83","num_nodes":"49","size_leaf_vector":"1"}},{"base_weights":[-3.2118157E-1,-3.6086282E-1,-1.7684017E-1,4.0255666E-1,-3.6936957E-1,-2.0731808E-1,4.5626067E-2,5.079657E-2,-1.7808815E-2,-4.253794E-1,-2.6335123E-1,-3.804673E-2,-4.8864266E-1,-4.3594903E-1,3.0188277E-1,1.9914928E-1,-3.3515072E-1,3.8325626E-1,-2.0024861E-1,-5.3605443E-1,1.597426E-2,-4.448581E-3,-2.2849096E-2,-1.596265E-2,3.8469475E-2,-5.2736807E-3,4.1498657E-2,-1.8964611E-2,8.126835E-3,4.102614E-2,-2.882149E-3,-1.7181141E-2,1.1840352E-2,-2.9409451E-2,-2.1991055E-4],"categories":[],"categories_nodes":[],"categories_segments":[],"categories_sizes":[],"default_left":[0,0,0,0,0,0,0,0,0,0,0,0,0,0,0,0,0,0,0,0,0,0,0,0,0,0,0,0,0,0,0,0,0,0,0],"id":25,"left_children":[1,3,5,7,9,11,-1,-1,-1,13,15,17,19,21,23,25,27,29,31,33,-1,-1,-1,-1,-1,-1,-1,-1,-1,-1,-1,-1,-1,-1,-1],"loss_changes":[2.0991096E0,2.0660324E0,2.957847E0,2.0987136E0,1.6249008E0,3.8831747E0,0E0,0E0,0E0,1.5903282E0,3.5116296E0,3.6466074E0,1.3473492E0,1.3274002E0,1.2066063E0,2.886926E0,2.0425854E0,2.9130719E0,2.486047E0,8.1142044E-1,0E0,0E0,0E0,0E0,0E0,0E0,0E0,0E0,0E0,0E0,0E0,0E0,0E0,0E0,0E0],"parents":[2147483647,0,0,1,1,2,2,3,3,4,4,5,5,9,9,10,10,11,11,12,12,13,13,14,14,15,15,16,16,17,17,18,18,19,19],"right_children":[2,4,6,8,10,12,-1,-1,-1,14,16,18,20,22,24,26,28,30,32,34,-1,-1,-1,-1,-1,-1,-1,-1,-1,-1,-1,-1,-1,-1,-1],"split_conditions":[6.745913E-1,-3.8499284E0,2.7632291E0,1.6826472E-1,5.986202E-2,-1.3618362E-1,4.5626067E-2,5.079657E-2,-1.7808815E-2,2.3470502E0,-5.621315E-2,-1.0300672E0,1.3499273E0,-1.3110436E0,-3.0993348E-1,-7.852725E-2,1.544067E0,-2.1713524E0,3.041886E-1,5.1324266E-1,1.597426E-2,-4.448581E-3,-2.2849096E-2,-1.596265E-2,3.8469475E-2,-5.2736807E-3,4.1498657E-2,-1.8964611E-2,8.126835E-3,4.102614E-2,-2.882149E-3,-1.7181141E-2,1.1840352E-2,-2.9409451E-2,-2.1991055E-4],"split_indices":[80,77,73,78,71,73,0,0,0,78,64,78,63,62,75,80,58,81,71,79,0,0,0,0,0,0,0,0,0,0,0,0,0,0,0],"split_type":[0,0,0,0,0,0,0,0,0,0,0,0,0,0,0,0,0,0,0,0,0,0,0,0,0,0,0,0,0,0,0,0,0,0,0],"sum_hessian":[3.7662814E2,2.942383E2,8.238982E1,2.7320783E0,2.9150623E2,8.093512E1,1.4546969E0,1.3233068E0,1.4087714E0,1.8876747E2,1.0273877E2,5.123972E1,2.96954E1,1.8645815E2,2.3093174E0,1.3567738E1,8.917103E1,1.3864708E1,3.737501E1,2.8367773E1,1.3276283E0,1.095557E1,1.7550258E2,1.1278956E0,1.1814218E0,9.711085E0,3.8566527E0,8.212499E1,7.046036E0,6.528739E0,7.335969E0,2.8303837E1,9.071175E0,2.5737593E1,2.63018E0],"tree_param":{"num_deleted":"0","num_feature":"83","num_nodes":"35","size_leaf_vector":"1"}},{"base_weights":[-4.2198026E-1,-4.5513603E-1,-1.553972E-1,2.2292934E-2,-4.6186468E-1,-3.1951007E-1,5.3622526E-1,-5.0397044E-1,-3.5277683E-1,2.2038274E-1,-3.9220962E-1,9.869312E-1,-2.1074947E-2,-5.104696E-1,1.1175271E-2,2.3114596E-1,-3.938267E-1,4.4290017E-2,-2.1453685E-1,-1.15401946E-1,-4.9784222E-1,6.712648E-2,-2.086456E-3,-2.68311E-2,-1.44734E-2,-1.8074784E-2,2.4303768E-2,-5.0223274E-3,-2.3977727E-2,-1.786322E-2,2.210852E-3,-1.9216942E-2,1.7795166E-2,-2.8423294E-2,-2.3923793E-3],"categories":[],"categories_nodes":[],"categories_segments":[],"categories_sizes":[],"default_left":[0,0,0,0,0,0,0,0,0,0,0,0,0,0,0,0,0,0,0,0,0,0,0,0,0,0,0,0,0,0,0,0,0,0,0],"id":26,"left_children":[1,3,5,-1,7,9,11,13,15,17,19,21,-1,23,-1,25,27,-1,29,31,33,-1,-1,-1,-1,-1,-1,-1,-1,-1,-1,-1,-1,-1,-1],"loss_changes":[3.0255356E0,2.0915756E0,4.741865E0,0E0,1.2425385E0,1.3884232E0,3.910596E0,1.1579132E0,2.2351036E0,1.5146068E0,8.078971E-1,2.179223E0,0E0,1.1111412E0,0E0,1.1585544E0,2.0630674E0,0E0,1.4774764E-1,1.3378874E0,6.4396E-1,0E0,0E0,0E0,0E0,0E0,0E0,0E0,0E0,0E0,0E0,0E0,0E0,0E0,0E0],"parents":[2147483647,0,0,1,1,2,2,4,4,5,5,6,6,7,7,8,8,9,9,10,10,11,11,13,13,15,15,16,16,18,18,19,19,20,20],"right_children":[2,4,6,-1,8,10,12,14,16,18,20,22,-1,24,-1,26,28,-1,30,32,34,-1,-1,-1,-1,-1,-1,-1,-1,-1,-1,-1,-1,-1,-1],"split_conditions":[1.131145E0,-1.4181577E0,8.459571E-1,2.2292934E-2,1E0,-1.2905266E0,1E0,3.5671623E0,-4.2048216E-1,2.3050775E-1,1.4614826E0,4.67073E-1,-2.1074947E-2,2.0662363E0,1.1175271E-2,-5.845431E-1,-1.3804383E0,4.4290017E-2,4.9508253E-1,-1.64127E-2,1.6002812E0,6.712648E-2,-2.086456E-3,-2.68311E-2,-1.44734E-2,-1.8074784E-2,2.4303768E-2,-5.0223274E-3,-2.3977727E-2,-1.786322E-2,2.210852E-3,-1.9216942E-2,1.7795166E-2,-2.8423294E-2,-2.3923793E-3],"split_indices":[58,65,72,0,36,70,47,82,82,76,58,71,0,77,0,60,81,0,78,81,76,0,0,0,0,0,0,0,0,0,0,0,0,0,0],"split_type":[0,0,0,0,0,0,0,0,0,0,0,0,0,0,0,0,0,0,0,0,0,0,0,0,0,0,0,0,0,0,0,0,0,0,0],"sum_hessian":[3.4930447E2,3.100369E2,3.926757E1,1.8144288E0,3.0822247E2,3.2171684E1,7.095887E0,2.1977412E2,8.844834E1,3.5769029E0,2.859478E1,4.8044243E0,2.291463E0,2.1812373E2,1.6503859E0,5.5053535E0,8.2942986E1,1.0040417E0,2.5728612E0,8.476032E0,2.011875E1,3.343487E0,1.460937E0,1.9376614E2,2.435759E1,1.5301492E0,3.9752042E0,1.924702E1,6.369597E1,1.4128357E0,1.1600255E0,5.514094E0,2.961938E0,1.7162012E1,2.9567373E0],"tree_param":{"num_deleted":"0","num_feature":"83","num_nodes":"35","size_leaf_vector":"1"}},{"base_weights":[-1.7794771E-1,4.817827E-1,-4.9761993E-1,6.204745E-1,-2.9010287E-2,-5.650731E-1,1.0341551E0,-2.756618E-2,7.0983434E-1,-3.005572E-2,7.836721E-1,-1.8037798E-2,6.31609E-2,-2.6901687E-2,8.0168104E-1,6.08494E-2,-1.930123E-2,-2.5785519E-2,4.362482E-2],"categories":[],"categories_nodes":[],"categories_segments":[],"categories_sizes":[],"default_left":[0,0,0,0,0,0,0,0,0,0,0,0,0,0,0,0,0,0,0],"id":27,"left_children":[1,3,5,7,-1,9,11,-1,13,-1,15,-1,-1,-1,17,-1,-1,-1,-1],"loss_changes":[8.424437E1,1.958383E1,2.8357803E1,1.2530022E1,0E0,1.3018005E1,4.191249E0,0E0,1.2826435E1,0E0,4.0946894E0,0E0,0E0,0E0,9.885017E0,0E0,0E0,0E0,0E0],"parents":[2147483647,0,0,1,1,2,2,3,3,5,5,6,6,8,8,10,10,14,14],"right_children":[2,4,6,8,-1,10,12,-1,14,-1,16,-1,-1,-1,18,-1,-1,-1,-1],"split_conditions":[-1.9111856E0,4.823392E-1,5.754011E0,-2.2053103E-1,-2.9010287E-2,3.0092018E0,1.030326E0,-2.756618E-2,-1.0160496E0,-3.005572E-2,-8.371938E-1,-1.8037798E-2,6.31609E-2,-2.6901687E-2,-1.1588048E0,6.08494E-2,-1.930123E-2,-2.5785519E-2,4.362482E-2],"split_indices":[79,60,67,82,0,60,57,0,58,0,69,0,0,0,62,0,0,0,0],"split_type":[0,0,0,0,0,0,0,0,0,0,0,0,0,0,0,0,0,0,0],"sum_hessian":[3.9731967E2,1.2951767E2,2.67802E2,1.14924675E2,1.4592998E1,2.57111E2,1.0691015E1,7.7767334E0,1.0714794E2,2.5095914E2,6.1518493E0,1.4268826E0,9.264133E0,7.012684E0,1.0013526E2,4.45942E0,1.6924292E0,4.7876253E0,9.534763E1],"tree_param":{"num_deleted":"0","num_feature":"83","num_nodes":"19","size_leaf_vector":"1"}},{"base_weights":[5.145243E-1,6.0741436E-1,-3.8365132E-1,2.5484455E-1,7.0905566E-1,1.1878849E-1,-5.879172E-1,5.832399E-1,7.3728345E-2,7.353243E-1,1.5707903E-3,-5.33282E-1,4.815874E-1,-6.3716114E-1,3.0228702E-2,7.286025E-1,-2.540711E-2,-3.0676687E-1,4.3549195E-1,7.4725115E-1,-1.4775777E-2,-5.208401E-1,3.260679E-1,-3.0579297E-2,-3.742474E-3,7.968674E-1,-7.970922E-2,-6.690268E-1,-6.0327142E-2,3.8756877E-2,-1.2632509E-2,4.207146E-2,-2.2590663E-2,-3.4250177E-3,3.7981678E-2,3.9228838E-2,3.1157572E-2,-2.6906848E-2,1.273889E-2,-2.998514E-2,-3.5245304E-3,2.5128735E-2,-1.5952876E-2,4.358806E-2,1.04236035E-2,-2.0759284E-2,2.8623179E-2,-3.42603E-2,-3.497433E-3,1.55615015E-2,-2.045538E-2],"categories":[],"categories_nodes":[],"categories_segments":[],"categories_sizes":[],"default_left":[0,0,0,0,0,0,0,0,0,0,0,0,0,0,0,0,0,0,0,0,0,0,0,0,0,0,0,0,0,0,0,0,0,0,0,0,0,0,0,0,0,0,0,0,0,0,0,0,0,0,0],"id":28,"left_children":[1,3,5,7,9,11,13,15,17,19,21,23,25,27,-1,29,-1,31,33,35,37,39,41,-1,-1,43,45,47,49,-1,-1,-1,-1,-1,-1,-1,-1,-1,-1,-1,-1,-1,-1,-1,-1,-1,-1,-1,-1,-1,-1],"loss_changes":[5.219162E1,2.0058746E1,6.1233845E0,7.566943E0,8.135971E0,4.4868097E0,2.857624E0,7.562669E0,1.1642426E1,3.7878265E0,2.9969206E0,2.0071042E-1,2.1895747E0,7.117996E-1,0E0,2.0414543E0,0E0,7.2644396E0,7.1213512E0,1.4360809E0,1.2075822E0,1.9834125E-1,1.40176E0,0E0,0E0,1.6127253E-1,1.3819762E0,3.2697105E-1,5.473721E-1,0E0,0E0,0E0,0E0,0E0,0E0,0E0,0E0,0E0,0E0,0E0,0E0,0E0,0E0,0E0,0E0,0E0,0E0,0E0,0E0,0E0,0E0],"parents":[2147483647,0,0,1,1,2,2,3,3,4,4,5,5,6,6,7,7,8,8,9,9,10,10,11,11,12,12,13,13,15,15,17,17,18,18,19,19,20,20,21,21,22,22,25,25,26,26,27,27,28,28],"right_children":[2,4,6,8,10,12,14,16,18,20,22,24,26,28,-1,30,-1,32,34,36,38,40,42,-1,-1,44,46,48,50,-1,-1,-1,-1,-1,-1,-1,-1,-1,-1,-1,-1,-1,-1,-1,-1,-1,-1,-1,-1,-1,-1],"split_conditions":[1E0,-1.9111856E0,-1.9158642E-1,1E0,1.9569892E0,-6.100229E-1,7.017061E-1,2.0544434E0,-4.7759014E-1,4.0978575E0,1E0,-1.06554195E-1,2.4170736E-2,-9.755976E-1,3.0228702E-2,2.3950088E0,-2.540711E-2,-7.601785E-2,1E0,1E0,5.056372E0,1E0,1.5300056E0,-3.0579297E-2,-3.742474E-3,-4.9613815E-2,2.3050775E-1,-8.3427966E-1,1.71959E0,3.8756877E-2,-1.2632509E-2,4.207146E-2,-2.2590663E-2,-3.4250177E-3,3.7981678E-2,3.9228838E-2,3.1157572E-2,-2.6906848E-2,1.273889E-2,-2.998514E-2,-3.5245304E-3,2.5128735E-2,-1.5952876E-2,4.358806E-2,1.04236035E-2,-2.0759284E-2,2.8623179E-2,-3.42603E-2,-3.497433E-3,1.55615015E-2,-2.045538E-2],"split_indices":[56,79,73,41,58,64,58,57,64,80,23,82,80,78,0,66,0,59,47,4,80,9,78,0,0,78,76,79,64,0,0,0,0,0,0,0,0,0,0,0,0,0,0,0,0,0,0,0,0,0,0],"split_type":[0,0,0,0,0,0,0,0,0,0,0,0,0,0,0,0,0,0,0,0,0,0,0,0,0,0,0,0,0,0,0,0,0,0,0,0,0,0,0,0,0,0,0,0,0,0,0,0,0,0,0],"sum_hessian":[6.2176874E2,5.637853E2,5.7983425E1,1.2694613E2,4.3683917E2,1.6880457E1,4.110297E1,4.4336334E1,8.2609795E1,4.211622E2,1.5676957E1,5.8664975E0,1.1013959E1,3.9920155E1,1.1828127E0,3.9418533E1,4.9178014E0,4.033662E1,4.227317E1,4.1457416E2,6.5880585E0,5.7748704E0,9.902086E0,4.725298E0,1.1411994E0,6.7838087E0,4.2301507E0,3.7678864E1,2.2412946E0,3.7834328E1,1.5842055E0,3.9855611E0,3.635106E1,1.6854923E1,2.5418247E1,3.146226E2,9.995155E1,1.9008996E0,4.687159E0,4.6320868E0,1.1427834E0,7.948372E0,1.9537145E0,5.590616E0,1.1931922E0,3.033239E0,1.1969118E0,3.6548046E1,1.1308141E0,1.137342E0,1.1039526E0],"tree_param":{"num_deleted":"0","num_feature":"83","num_nodes":"51","size_leaf_vector":"1"}},{"base_weights":[-3.1348756E-1,-3.4221083E-1,-2.807981E-2,-4.0436727E-1,-2.2984508E-1,-4.8950276E-1,2.0002927E-1,-4.97838E-2,-4.2970732E-1,1.8298867E-1,-2.9426265E-1,-2.7540132E-2,3.5296117E-3,-1.5624525E-1,6.020738E-1,-2.6325372E-1,9.0337604E-1,-4.6111208E-1,-1.0836044E-1,5.1620644E-1,-2.4049142E-1,-1.9115008E-1,-4.6448717E-1,3.735688E-1,-4.568043E-1,2.3372006E-1,6.947749E-2,1.3268955E-2,-2.0279054E-2,3.9539034E-3,6.409307E-2,8.289869E-3,-2.3428036E-2,-1.2265726E-2,4.121422E-2,-7.2771455E-3,4.7767352E-2,2.2962911E-2,-2.0449137E-2,7.6267305E-3,-1.5408329E-2,1.1790624E-2,-2.5067914E-2,4.2144537E-2,-1.965647E-2,-2.6733467E-2,3.8948301E-3,4.6551783E-2,-1.28418105E-2],"categories":[],"categories_nodes":[],"categories_segments":[],"categories_sizes":[],"default_left":[0,0,0,0,0,0,0,0,0,0,0,0,0,0,0,0,0,0,0,0,0,0,0,0,0,0,0,0,0,0,0,0,0,0,0,0,0,0,0,0,0,0,0,0,0,0,0,0,0],"id":29,"left_children":[1,3,5,7,9,11,13,15,17,19,21,-1,-1,23,25,27,29,31,33,35,37,39,41,43,45,47,-1,-1,-1,-1,-1,-1,-1,-1,-1,-1,-1,-1,-1,-1,-1,-1,-1,-1,-1,-1,-1,-1,-1],"loss_changes":[2.986435E0,2.2255592E0,3.7299118E0,1.8871918E0,3.259606E0,4.407766E-1,3.5033143E0,3.3506484E0,1.9493942E0,2.5071385E0,1.7482042E0,0E0,0E0,2.3065162E0,2.9786525E0,1.106328E0,8.4238696E-1,9.190254E-1,2.6220593E0,2.9778383E0,1.1450337E0,2.7365716E0,1.1195974E0,2.2762334E0,4.1668665E-1,3.3045006E0,0E0,0E0,0E0,0E0,0E0,0E0,0E0,0E0,0E0,0E0,0E0,0E0,0E0,0E0,0E0,0E0,0E0,0E0,0E0,0E0,0E0,0E0,0E0],"parents":[2147483647,0,0,1,1,2,2,3,3,4,4,5,5,6,6,7,7,8,8,9,9,10,10,13,13,14,14,15,15,16,16,17,17,18,18,19,19,20,20,21,21,22,22,23,23,24,24,25,25],"right_children":[2,4,6,8,10,12,14,16,18,20,22,-1,-1,24,26,28,30,32,34,36,38,40,42,44,46,48,-1,-1,-1,-1,-1,-1,-1,-1,-1,-1,-1,-1,-1,-1,-1,-1,-1,-1,-1,-1,-1,-1,-1],"split_conditions":[1.7015711E0,5.986202E-2,-3.3810997E0,-9.5916384E-1,-5.621315E-2,-3.338587E-2,-1.7192933E-1,1.7630551E0,4.8693854E-1,-2.2171631E-1,5.1324266E-1,-2.7540132E-2,3.5296117E-3,-7.263057E-1,1.7365899E0,1E0,8.7636995E-1,-1.6061842E0,1.1091043E0,-7.136081E-1,-1.4176389E0,1E0,-1.2905266E0,1E0,7.784171E-1,2.3456767E-2,6.947749E-2,1.3268955E-2,-2.0279054E-2,3.9539034E-3,6.409307E-2,8.289869E-3,-2.3428036E-2,-1.2265726E-2,4.121422E-2,-7.2771455E-3,4.7767352E-2,2.2962911E-2,-2.0449137E-2,7.6267305E-3,-1.5408329E-2,1.1790624E-2,-2.5067914E-2,4.2144537E-2,-1.965647E-2,-2.6733467E-2,3.8948301E-3,4.6551783E-2,-1.28418105E-2],"split_indices":[80,71,79,64,64,59,65,79,69,82,79,0,0,61,67,38,78,61,57,69,61,7,70,36,76,59,0,0,0,0,0,0,0,0,0,0,0,0,0,0,0,0,0,0,0,0,0,0,0],"split_type":[0,0,0,0,0,0,0,0,0,0,0,0,0,0,0,0,0,0,0,0,0,0,0,0,0,0,0,0,0,0,0,0,0,0,0,0,0,0,0,0,0,0,0,0,0,0,0,0,0],"sum_hessian":[3.644677E2,3.30961E2,3.3506725E1,2.1141537E2,1.1954562E2,1.0705513E1,2.280121E1,1.4298654E1,1.9711673E2,1.5887367E1,1.0365826E2,9.664381E0,1.0411323E0,1.2412851E1,1.038836E1,1.2273653E1,2.0250008E0,1.791716E2,1.794512E1,8.768701E0,7.118666E0,6.5876724E1,3.778153E1,4.40499E0,8.007861E0,7.9611893E0,2.42717E0,2.420151E0,9.853502E0,1.0176367E0,1.007364E0,1.854217E0,1.7731738E2,1.6289988E1,1.6551315E0,3.7644906E0,5.00421E0,1.0465603E0,6.072106E0,1.665536E1,4.9221363E1,1.6198488E0,3.6161682E1,2.6707537E0,1.7342362E0,6.9900103E0,1.0178509E0,2.916924E0,5.0442653E0],"tree_param":{"num_deleted":"0","num_feature":"83","num_nodes":"49","size_leaf_vector":"1"}},{"base_weights":[-4.2200425E-1,-4.4887E-1,-1.640356E-1,-5.015311E-1,-3.636644E-1,-2.9972693E-1,4.6813613E-1,-5.092608E-1,1.3235896E-2,-3.8857928E-1,2.2465633E-1,9.735809E-2,-3.9958313E-1,-2.1694809E-1,9.872112E-1,-5.1298124E-1,2.6802882E-3,-4.042831E-1,1.9721448E-1,7.494306E-1,-2.0467045E-2,3.5115015E-2,-1.8328424E-1,-4.6144682E-1,2.0167662E-2,-1.834569E-2,4.1430434E-3,6.074021E-2,1.6030485E-2,1.7382698E-3,-2.5833702E-2,1.7210344E-2,-2.0805068E-2,-1.819491E-2,3.796369E-2,4.2904468E-4,6.0249485E-2,-2.2685276E-2,2.0827597E-2,-2.795111E-2,-9.54065E-3],"categories":[],"categories_nodes":[],"categories_segments":[],"categories_sizes":[],"default_left":[0,0,0,0,0,0,0,0,0,0,0,0,0,0,0,0,0,0,0,0,0,0,0,0,0,0,0,0,0,0,0,0,0,0,0,0,0,0,0,0,0],"id":30,"left_children":[1,3,5,7,9,11,13,15,-1,17,19,21,23,25,27,29,-1,31,33,35,-1,-1,37,39,-1,-1,-1,-1,-1,-1,-1,-1,-1,-1,-1,-1,-1,-1,-1,-1,-1],"loss_changes":[2.3019829E0,1.2080002E0,3.0488367E0,1.2534523E0,1.8755474E0,1.1699429E0,2.4837093E0,4.1978455E-1,0E0,1.159792E0,2.1666913E0,1.2383305E0,1.3280368E0,1.909566E-1,1.8872428E-1,3.945732E-1,0E0,1.157589E0,1.4549979E0,1.1411663E0,0E0,0E0,1.0418323E0,4.6928883E-1,0E0,0E0,0E0,0E0,0E0,0E0,0E0,0E0,0E0,0E0,0E0,0E0,0E0,0E0,0E0,0E0,0E0],"parents":[2147483647,0,0,1,1,2,2,3,3,4,4,5,5,6,6,7,7,9,9,10,10,11,11,12,12,13,13,14,14,15,15,17,17,18,18,19,19,22,22,23,23],"right_children":[2,4,6,8,10,12,14,16,-1,18,20,22,24,26,28,30,-1,32,34,36,-1,-1,38,40,-1,-1,-1,-1,-1,-1,-1,-1,-1,-1,-1,-1,-1,-1,-1,-1,-1],"split_conditions":[1.2963139E0,1E0,8.459571E-1,5.0666795E0,2.452509E0,-7.18377E-1,1E0,4.275606E0,1.3235896E-2,1.6934144E0,-7.101112E-1,-1.8039988E0,2.1405344E0,3.9155602E-1,1.5813736E0,-5.077234E0,2.6802882E-3,-4.5970565E-1,-1.9158642E-1,-2.6106292E-1,-2.0467045E-2,3.5115015E-2,-1.9001241E-1,1.7278437E-1,2.0167662E-2,-1.834569E-2,4.1430434E-3,6.074021E-2,1.6030485E-2,1.7382698E-3,-2.5833702E-2,1.7210344E-2,-2.0805068E-2,-1.819491E-2,3.796369E-2,4.2904468E-4,6.0249485E-2,-2.2685276E-2,2.0827597E-2,-2.795111E-2,-9.54065E-3],"split_indices":[58,4,72,68,75,64,4,66,0,78,79,81,81,63,60,79,0,59,73,60,0,0,62,81,0,0,0,0,0,0,0,0,0,0,0,0,0,0,0,0,0],"split_type":[0,0,0,0,0,0,0,0,0,0,0,0,0,0,0,0,0,0,0,0,0,0,0,0,0,0,0,0,0,0,0,0,0,0,0,0,0,0,0,0,0],"sum_hessian":[3.417753E2,3.088686E2,3.2906693E1,1.8786992E2,1.2099868E2,2.7524601E1,5.382089E0,1.8632573E2,1.5441911E0,1.16408394E2,4.590287E0,5.5358667E0,2.1988735E1,2.570952E0,2.8111374E0,1.8519026E2,1.135468E0,1.1367098E2,2.7374117E0,2.4118612E0,2.178426E0,1.2781845E0,4.257682E0,2.0810642E1,1.1780931E0,1.5645379E0,1.0064139E0,1.4825702E0,1.3285673E0,1.1838043E0,1.8400645E2,1.3297313E0,1.1234125E2,1.5462892E0,1.1911225E0,1.3063138E0,1.1055473E0,3.1025789E0,1.1551031E0,1.4512608E1,6.298034E0],"tree_param":{"num_deleted":"0","num_feature":"83","num_nodes":"41","size_leaf_vector":"1"}},{"base_weights":[-1.9346328E-1,4.4105488E-1,-5.2560145E-1,6.1031044E-1,-2.941976E-2,-2.980882E-2,6.3444793E-1,7.231676E-1,-2.8015647E-2,-2.5100926E-2,5.5723883E-2,-3.4919E-2,8.6295563E-1,-2.854444E-2,5.9040945E-2,5.313694E-2,1.1077482E-2],"categories":[],"categories_nodes":[],"categories_segments":[],"categories_sizes":[],"default_left":[0,0,0,0,0,0,0,0,0,0,0,0,0,0,0,0,0],"id":31,"left_children":[1,3,5,7,-1,-1,9,11,-1,-1,-1,13,15,-1,-1,-1,-1],"loss_changes":[8.24113E1,2.3798927E1,2.1371178E1,1.5733238E1,0E0,0E0,8.846021E0,1.1290302E1,0E0,0E0,0E0,1.2079678E1,1.1265648E1,0E0,0E0,0E0,0E0],"parents":[2147483647,0,0,1,1,2,2,3,3,6,6,7,7,11,11,12,12],"right_children":[2,4,6,8,-1,-1,10,12,-1,-1,-1,14,16,-1,-1,-1,-1],"split_conditions":[-1.9111856E0,5.7937473E-1,1E0,4.823392E-1,-2.941976E-2,-2.980882E-2,1.4242173E0,-7.6406455E-1,-2.8015647E-2,-2.5100926E-2,5.5723883E-2,1.410542E0,-2.7305177E-1,-2.854444E-2,5.9040945E-2,5.313694E-2,1.1077482E-2],"split_indices":[79,72,56,60,0,0,57,60,0,0,0,61,62,0,0,0,0],"split_type":[0,0,0,0,0,0,0,0,0,0,0,0,0,0,0,0,0],"sum_hessian":[3.8894254E2,1.3352599E2,2.5541653E2,1.1502196E2,1.8504023E1,2.4122688E2,1.4189659E1,1.05256645E2,9.765318E0,4.2001147E0,9.989544E0,1.6503962E1,8.875268E1,1.18223715E1,4.6815896E0,6.717296E1,2.1579721E1],"tree_param":{"num_deleted":"0","num_feature":"83","num_nodes":"17","size_leaf_vector":"1"}},{"base_weights":[5.127144E-1,1.1385358E-1,6.6167843E-1,3.3494955E-1,-2.3524807E-1,6.875448E-1,-3.2399863E-1,1.14818715E-1,5.9247607E-1,-5.534544E-1,1.8707712E-1,7.1147484E-1,1.0509736E-1,-3.183217E-2,3.4185875E-2,-3.696422E-1,6.5854937E-1,7.2247493E-1,-1.981097E-2,-6.075469E-1,2.3368444E-2,6.0082227E-1,-3.6195144E-1,7.3254496E-1,1.4753415E-1,-5.207587E-1,4.2529407E-1,-2.8242512E-2,3.3590984E-2,3.733776E-2,-1.6541414E-2,3.9728567E-2,-1.21215E-2,-3.2221127E-2,1.430831E-2,-2.2555452E-2,3.523575E-2,-2.88363E-2,1.2315958E-2,1.9024512E-2,3.7385527E-2,2.1316694E-2,-2.138599E-2,-2.9957423E-2,-3.595739E-3,-1.0585183E-2,2.6550978E-2],"categories":[],"categories_nodes":[],"categories_segments":[],"categories_sizes":[],"default_left":[0,0,0,0,0,0,0,0,0,0,0,0,0,0,0,0,0,0,0,0,0,0,0,0,0,0,0,0,0,0,0,0,0,0,0,0,0,0,0,0,0,0,0,0,0,0,0],"id":32,"left_children":[1,3,5,7,9,11,13,15,17,19,21,23,25,-1,-1,27,29,31,-1,33,-1,35,37,39,41,43,45,-1,-1,-1,-1,-1,-1,-1,-1,-1,-1,-1,-1,-1,-1,-1,-1,-1,-1,-1,-1],"loss_changes":[3.70623E1,1.3290507E1,1.1820221E1,5.896308E0,9.10192E0,6.107605E0,4.314083E0,1.5512114E1,6.487341E0,2.4065247E0,6.9230843E0,4.9524384E0,3.9645011E0,0E0,0E0,6.74144E0,2.6618547E0,3.1835613E0,0E0,1.4018087E0,0E0,2.198721E0,1.8808787E0,1.9061279E0,2.8432567E0,1.9515657E-1,9.81653E-1,0E0,0E0,0E0,0E0,0E0,0E0,0E0,0E0,0E0,0E0,0E0,0E0,0E0,0E0,0E0,0E0,0E0,0E0,0E0,0E0],"parents":[2147483647,0,0,1,1,2,2,3,3,4,4,5,5,6,6,7,7,8,8,9,9,10,10,11,11,12,12,15,15,16,16,17,17,19,19,21,21,22,22,23,23,24,24,25,25,26,26],"right_children":[2,4,6,8,10,12,14,16,18,20,22,24,26,-1,-1,28,30,32,-1,34,-1,36,38,40,42,44,46,-1,-1,-1,-1,-1,-1,-1,-1,-1,-1,-1,-1,-1,-1,-1,-1,-1,-1,-1,-1],"split_conditions":[-1.9111856E0,-1.3618362E-1,5.754011E0,-7.256964E-2,-1.0371736E0,1.9569892E0,1E0,-4.7759014E-1,2.1332216E0,4.823392E-1,7.535519E-1,2.1465957E0,1E0,-3.183217E-2,3.4185875E-2,1E0,3.8842502E0,1.140822E0,-1.981097E-2,1.0842803E1,2.3368444E-2,-9.3965584E-1,-1.7192933E-1,-9.5916384E-1,5.284662E-1,4.0009993E-1,-1.8039988E0,-2.8242512E-2,3.3590984E-2,3.733776E-2,-1.6541414E-2,3.9728567E-2,-1.21215E-2,-3.2221127E-2,1.430831E-2,-2.2555452E-2,3.523575E-2,-2.88363E-2,1.2315958E-2,1.9024512E-2,3.7385527E-2,2.1316694E-2,-2.138599E-2,-2.9957423E-2,-3.595739E-3,-1.0585183E-2,2.6550978E-2],"split_indices":[79,73,67,57,81,58,55,64,57,60,82,80,23,0,0,40,68,71,0,73,0,71,65,64,63,57,81,0,0,0,0,0,0,0,0,0,0,0,0,0,0,0,0,0,0,0,0],"split_type":[0,0,0,0,0,0,0,0,0,0,0,0,0,0,0,0,0,0,0,0,0,0,0,0,0,0,0,0,0,0,0,0,0,0,0,0,0,0,0,0,0,0,0,0,0,0,0],"sum_hessian":[6.240448E2,1.7016948E2,4.538753E2,1.0421054E2,6.595895E1,4.4256387E2,1.1311413E1,5.6964104E1,4.7246437E1,3.743932E1,2.8519627E1,4.2488583E2,1.767805E1,8.914052E0,2.3973608E0,3.0293205E1,2.6670898E1,4.1994095E1,5.25234E0,3.593975E1,1.4995704E0,1.6209724E1,1.2309902E1,4.0929465E2,1.5591188E1,5.771233E0,1.1906816E1,2.589683E1,4.3963757E0,2.4712902E1,1.9579978E0,3.9238758E1,2.7553384E0,3.478348E1,1.1562673E0,1.1566267E0,1.5053098E1,9.135945E0,3.1739569E0,1.7980606E1,3.9131403E2,1.0675925E1,4.9152637E0,4.6280775E0,1.1431556E0,1.5522283E0,1.0354587E1],"tree_param":{"num_deleted":"0","num_feature":"83","num_nodes":"47","size_leaf_vector":"1"}},{"base_weights":[-2.946033E-1,-3.4309903E-1,-1.2210714E-1,2.8396497E-2,-3.501137E-1,-2.6512742E-1,2.6834553E-1,3.5603827E-1,-3.5883608E-1,-3.0819166E-1,3.6741707E-2,1.4611562E-2,8.481205E-1,-1.7567767E-2,4.395493E-2,-3.885977E-1,-2.2298415E-1,-9.0134956E-2,-4.693494E-1,5.98959E-1,-2.768441E-1,1.1141832E0,-1.5885975E-2,1.1981461E-2,-1.9708714E-2,-1.4072414E-2,1.2086123E-2,-9.213953E-3,3.8412016E-2,1.243438E-2,-2.6768563E-2,-1.9669443E-2,5.8226187E-2,-2.5996948E-2,5.383543E-3,1.7923463E-2,6.1779883E-2],"categories":[],"categories_nodes":[],"categories_segments":[],"categories_sizes":[],"default_left":[0,0,0,0,0,0,0,0,0,0,0,0,0,0,0,0,0,0,0,0,0,0,0,0,0,0,0,0,0,0,0,0,0,0,0,0,0],"id":33,"left_children":[1,3,5,-1,7,9,11,13,15,17,-1,19,21,-1,-1,23,25,27,29,31,33,35,-1,-1,-1,-1,-1,-1,-1,-1,-1,-1,-1,-1,-1,-1,-1],"loss_changes":[2.9804134E0,1.9974976E0,4.5852537E0,0E0,1.8518944E0,2.7959108E0,3.248798E0,1.75834E0,1.0333252E0,1.992691E0,0E0,2.9653342E0,2.4418497E0,0E0,0E0,8.857918E-1,1.4842172E0,2.230337E0,1.7004361E0,3.7056124E0,1.1450714E0,8.0275536E-2,0E0,0E0,0E0,0E0,0E0,0E0,0E0,0E0,0E0,0E0,0E0,0E0,0E0,0E0,0E0],"parents":[2147483647,0,0,1,1,2,2,4,4,5,5,6,6,7,7,8,8,9,9,11,11,12,12,15,15,16,16,17,17,18,18,19,19,20,20,21,21],"right_children":[2,4,6,-1,8,10,12,14,16,18,-1,20,22,-1,-1,24,26,28,30,32,34,36,-1,-1,-1,-1,-1,-1,-1,-1,-1,-1,-1,-1,-1,-1,-1],"split_conditions":[6.745913E-1,-2.0070627E0,1E0,2.8396497E-2,-2.480424E0,2.7632291E0,2.1465957E0,-5.205432E-1,1E0,1E0,3.6741707E-2,7.4305665E-1,1.3454391E0,-1.7567767E-2,4.395493E-2,-5.165483E-1,1.0586889E0,3.3609128E-1,1E0,-1.7219886E-1,1.0370478E-1,1E0,-1.5885975E-2,1.1981461E-2,-1.9708714E-2,-1.4072414E-2,1.2086123E-2,-9.213953E-3,3.8412016E-2,1.243438E-2,-2.6768563E-2,-1.9669443E-2,5.8226187E-2,-2.5996948E-2,5.383543E-3,1.7923463E-2,6.1779883E-2],"split_indices":[80,58,34,0,75,73,80,58,55,41,0,80,57,0,0,59,60,59,13,79,70,47,0,0,0,0,0,0,0,0,0,0,0,0,0,0,0],"split_type":[0,0,0,0,0,0,0,0,0,0,0,0,0,0,0,0,0,0,0,0,0,0,0,0,0,0,0,0,0,0,0,0,0,0,0,0,0],"sum_hessian":[3.6029047E2,2.8045428E2,7.98362E1,1.5319309E0,2.7892233E2,5.866761E1,2.1168589E1,2.9173703E0,2.7600497E2,5.6908585E1,1.7590222E0,1.5437632E1,5.730957E0,1.3797067E0,1.5376636E0,2.2487932E2,5.112566E1,2.4847559E1,3.2061028E1,4.7863293E0,1.0651302E1,4.70216E0,1.0287971E0,1.609339E0,2.2326997E2,4.5762672E1,5.3629894E0,2.30994E1,1.7481587E0,2.4667308E0,2.9594297E1,1.8480849E0,2.9382443E0,6.30991E0,4.341393E0,1.1979928E0,3.504167E0],"tree_param":{"num_deleted":"0","num_feature":"83","num_nodes":"37","size_leaf_vector":"1"}},{"base_weights":[-4.2515942E-1,-4.6623015E-1,-2.2720765E-1,2.2245673E-2,-4.7384524E-1,-3.875308E-1,4.4300165E-2,-4.790162E-1,1.619925E-2,-4.4339782E-1,-1.306231E-1,3.6226654E-1,-2.650792E-2,1.3907117E-2,-4.8413306E-1,-4.6490046E-1,3.5813272E-3,4.5534173E-1,-2.4439704E-2,1.1525954E-1,9.5349544E-1,4.532983E-3,-2.445605E-2,3.5102007E-3,-2.440182E-2,4.3677006E-2,-1.4959727E-2,-1.132686E-2,3.2188248E-2,4.227322E-4,6.741477E-2],"categories":[],"categories_nodes":[],"categories_segments":[],"categories_sizes":[],"default_left":[0,0,0,0,0,0,0,0,0,0,0,0,0,0,0,0,0,0,0,0,0,0,0,0,0,0,0,0,0,0,0],"id":34,"left_children":[1,3,5,-1,7,9,11,13,-1,15,17,19,-1,-1,21,23,-1,25,-1,27,29,-1,-1,-1,-1,-1,-1,-1,-1,-1,-1],"loss_changes":[2.6255798E0,2.134838E0,2.6150239E0,0E0,1.2917175E0,4.8211908E-1,4.4032183E0,1.1966476E0,0E0,3.7093306E-1,1.9306048E0,2.1441298E0,0E0,0E0,8.260002E-1,3.9823294E-1,0E0,1.3989336E0,0E0,2.3178506E0,1.634234E0,0E0,0E0,0E0,0E0,0E0,0E0,0E0,0E0,0E0,0E0],"parents":[2147483647,0,0,1,1,2,2,4,4,5,5,6,6,7,7,9,9,10,10,11,11,14,14,15,15,17,17,19,19,20,20],"right_children":[2,4,6,-1,8,10,12,14,-1,16,18,20,-1,-1,22,24,-1,26,-1,28,30,-1,-1,-1,-1,-1,-1,-1,-1,-1,-1],"split_conditions":[7.416347E-1,-1.4181577E0,1E0,2.2245673E-2,4.3140683E0,4.9051392E-1,1.6254141E0,-5.561844E0,1.619925E-2,8.93518E-1,1.2902611E0,5.7937473E-1,-2.650792E-2,1.3907117E-2,-1.7688855E0,-1.4393182E0,3.5813272E-3,1E0,-2.4439704E-2,5.475846E-1,1.131145E0,4.532983E-3,-2.445605E-2,3.5102007E-3,-2.440182E-2,4.3677006E-2,-1.4959727E-2,-1.132686E-2,3.2188248E-2,4.227322E-4,6.741477E-2],"split_indices":[60,65,4,0,64,72,60,79,0,67,72,72,0,0,71,70,0,47,0,79,58,0,0,0,0,0,0,0,0,0,0],"split_type":[0,0,0,0,0,0,0,0,0,0,0,0,0,0,0,0,0,0,0,0,0,0,0,0,0,0,0,0,0,0,0],"sum_hessian":[3.3497867E2,2.762976E2,5.868106E1,1.8141134E0,2.744835E2,3.6626236E1,2.2054823E1,2.7311298E2,1.3705227E0,2.9487907E1,7.1383286E0,1.4434575E1,7.620249E0,1.4751288E0,2.7163785E2,2.839953E1,1.0883772E0,2.6051033E0,4.5332255E0,1.1023897E1,3.4106777E0,2.189166E0,2.6944867E2,1.0926872E0,2.7306843E1,1.5746453E0,1.0304579E0,7.0414133E0,3.9824834E0,1.3059685E0,2.1047091E0],"tree_param":{"num_deleted":"0","num_feature":"83","num_nodes":"31","size_leaf_vector":"1"}},{"base_weights":[-1.5376595E-1,4.5539576E-1,-4.8658535E-1,1.7926875E-1,8.4711885E-1,-5.54971E-1,9.4626594E-1,6.416075E-1,-3.6155045E-1,-2.715603E-2,1.0418401E0,-2.9609425E-2,4.591974E-1,-1.7390048E-2,5.7164825E-2,-2.7660161E-2,9.425576E-1,-2.9967114E-2,6.0327053E-2,1.1505582E0,-2.4087688E-2,5.77736E-2,-2.3725199E-2,7.5880378E-3,6.637516E-2,6.0635872E-2,-1.9641696E-2],"categories":[],"categories_nodes":[],"categories_segments":[],"categories_sizes":[],"default_left":[0,0,0,0,0,0,0,0,0,0,0,0,0,0,0,0,0,0,0,0,0,0,0,0,0,0,0],"id":35,"left_children":[1,3,5,7,9,11,13,15,17,-1,19,-1,21,-1,-1,-1,23,-1,-1,25,-1,-1,-1,-1,-1,-1,-1],"loss_changes":[8.031999E1,1.5002632E1,2.5607014E1,2.1096954E1,1.6174618E1,9.517265E0,3.4649296E0,1.6827427E1,1.5302142E1,0E0,8.988434E0,0E0,6.551326E0,0E0,0E0,0E0,1.0938065E1,0E0,0E0,5.064205E0,0E0,0E0,0E0,0E0,0E0,0E0,0E0],"parents":[2147483647,0,0,1,1,2,2,3,3,4,4,5,5,6,6,7,7,8,8,10,10,12,12,16,16,19,19],"right_children":[2,4,6,8,10,12,14,16,18,-1,20,-1,22,-1,-1,-1,24,-1,-1,26,-1,-1,-1,-1,-1,-1,-1],"split_conditions":[-1.9111856E0,-1.3618362E-1,5.754011E0,-5.016688E-1,3.2955605E-1,2.700249E0,9.883989E-2,1E0,2.0544434E0,-2.715603E-2,3.792446E-1,-2.9609425E-2,1E0,-1.7390048E-2,5.7164825E-2,-2.7660161E-2,-5.9431016E-1,-2.9967114E-2,6.0327053E-2,3.613223E0,-2.4087688E-2,5.77736E-2,-2.3725199E-2,7.5880378E-3,6.637516E-2,6.0635872E-2,-1.9641696E-2],"split_indices":[79,73,67,64,82,58,58,41,57,0,70,0,27,0,0,0,78,0,0,74,0,0,0,0,0,0,0],"split_type":[0,0,0,0,0,0,0,0,0,0,0,0,0,0,0,0,0,0,0,0,0,0,0,0,0,0,0],"sum_hessian":[3.940778E2,1.3910487E2,2.5497293E2,8.244602E1,5.6658855E1,2.4394296E2,1.1029969E1,4.4347553E1,3.8098465E1,6.7410383E0,4.9917816E1,2.3570909E2,8.233862E0,1.3563638E0,9.673605E0,8.754171E0,3.5593384E1,3.3618244E1,4.48022E0,4.6821632E1,3.0961819E0,4.580557E0,3.6533053E0,1.2109982E1,2.34834E1,4.5214886E1,1.6067498E0],"tree_param":{"num_deleted":"0","num_feature":"83","num_nodes":"27","size_leaf_vector":"1"}},{"base_weights":[4.9649024E-1,5.748187E-1,-3.9209253E-1,-1.428081E-1,6.2203485E-1,1.3113247E-1,-6.1145496E-1,-5.1295465E-1,4.9679354E-1,6.343876E-1,-2.4845341E-1,-3.8210982E-1,5.713098E-1,-6.4704466E-1,9.638704E-4,3.1823166E-2,-6.2714636E-1,7.491162E-1,-1.7889804E-1,6.5887105E-1,2.2967964E-1,3.489546E-2,-3.3204436E-2,-3.111265E-2,1.7907225E-2,7.504742E-1,-8.939513E-3,-6.643619E-1,-3.8087217E-3,-3.6346093E-2,2.9445872E-2,1.3447973E-2,4.30248E-2,-2.973105E-2,1.8558716E-2,3.4631964E-2,1.6035665E-2,-1.9450327E-2,3.4304563E-2,4.1279003E-2,9.651917E-3,-3.4055796E-2,-1.4611128E-2],"categories":[],"categories_nodes":[],"categories_segments":[],"categories_sizes":[],"default_left":[0,0,0,0,0,0,0,0,0,0,0,0,0,0,0,0,0,0,0,0,0,0,0,0,0,0,0,0,0,0,0,0,0,0,0,0,0,0,0,0,0,0,0],"id":36,"left_children":[1,3,5,7,9,11,13,15,17,19,21,23,25,27,-1,-1,29,31,33,35,37,-1,-1,-1,-1,39,-1,41,-1,-1,-1,-1,-1,-1,-1,-1,-1,-1,-1,-1,-1,-1,-1],"loss_changes":[4.3229645E1,1.9342117E1,5.8932524E0,8.751955E0,5.892502E0,3.784349E0,8.174982E-1,3.4477243E0,2.4637532E0,5.062042E0,3.6813834E0,1.6248612E0,1.3299866E0,2.852764E-1,0E0,0E0,3.0526829E0,3.109622E-1,1.2549286E0,5.4371033E0,9.175671E0,0E0,0E0,0E0,0E0,1.4939022E-1,0E0,5.7497025E-3,0E0,0E0,0E0,0E0,0E0,0E0,0E0,0E0,0E0,0E0,0E0,0E0,0E0,0E0,0E0],"parents":[2147483647,0,0,1,1,2,2,3,3,4,4,5,5,6,6,7,7,8,8,9,9,10,10,11,11,12,12,13,13,16,16,17,17,18,18,19,19,20,20,25,25,27,27],"right_children":[2,4,6,8,10,12,14,16,18,20,22,24,26,28,-1,-1,30,32,34,36,38,-1,-1,-1,-1,40,-1,42,-1,-1,-1,-1,-1,-1,-1,-1,-1,-1,-1,-1,-1,-1,-1],"split_conditions":[1E0,-3.6234045E0,-1.9158642E-1,-1.0260085E0,2.1332216E0,-2.733106E-1,-9.755976E-1,-1.0619255E0,3.18814E0,2.0532126E0,1E0,-6.352703E-1,7.4305665E-1,-8.3427966E-1,9.638704E-4,3.1823166E-2,2.0053491E-1,-6.435024E-1,-1.9158642E-1,1.3788983E0,-6.4993477E-1,3.489546E-2,-3.3204436E-2,-3.111265E-2,1.7907225E-2,-3.0169696E-1,-8.939513E-3,7.3179346E-1,-3.8087217E-3,-3.6346093E-2,2.9445872E-2,1.3447973E-2,4.30248E-2,-2.973105E-2,1.8558716E-2,3.4631964E-2,1.6035665E-2,-1.9450327E-2,3.4304563E-2,4.1279003E-2,9.651917E-3,-3.4055796E-2,-1.4611128E-2],"split_indices":[56,79,73,70,57,71,78,62,67,81,11,63,80,79,0,0,71,71,73,58,65,0,0,0,0,66,0,73,0,0,0,0,0,0,0,0,0,0,0,0,0,0,0],"split_type":[0,0,0,0,0,0,0,0,0,0,0,0,0,0,0,0,0,0,0,0,0,0,0,0,0,0,0,0,0,0,0,0,0,0,0,0,0,0,0,0,0,0,0],"sum_hessian":[6.1686615E2,5.67219E2,4.9647137E1,3.4891254E1,5.3232776E2,1.4784718E1,3.486242E1,2.2226482E1,1.2664772E1,5.251468E2,7.180952E0,6.8867526E0,7.8979654E0,3.297586E1,1.8865591E0,1.595278E0,2.0631205E1,9.142161E0,3.5226114E0,4.945974E2,3.0549395E1,1.9841318E0,5.1968203E0,5.3202395E0,1.566513E0,